{
  "network": [
    {
      "weights": [
        [
          -0.6484620199583645,
          1.6132962563234412,
          0.38096334796400405,
          1.5849661366962575,
          1.032335279725377,
          -0.7357050808623925,
          -0.6436912589116617,
          0.5855369271653017,
          0.34868890334177666,
          0.9270560605601109
        ],
        [
          0.3719065477738372,
          -0.581186754551955,
          -0.5620117507094045,
          0.7123151630531661,
          -0.6091087372600875,
          -1.2477085462067743,
          0.6835217891116768,
          0.044316320082804915,
          -0.13052597119163353,
          -0.10985962072824287
        ],
        [
          -0.4052724029851874,
          -1.220741375448407,
          -2.1033386147802693,
          -0.6048349992336645,
          -0.7147430869649648,
          -0.700653077605113,
          0.5334617810447206,
          -0.10812260479682931,
          -1.254533369179813,
          0.28274577925498595
        ],
        [
          1.3621839830922742,
          1.4853788054476298,
          -1.0441374662311222,
          -0.7070233036786665,
          1.1722411902994605,
          0.37066436798380553,
          -0.27214532017766674,
          -0.3795489295909229,
          1.4411068822899642,
          -1.6362469303909628
        ],
        [
          -1.1018042748854773,
          1.4953660535266107,
          0.5890495511072212,
          1.13518394377246,
          0.9910583955581703,
          -0.6611926910550877,
          1.701431810215058,
          -0.024721484435081303,
          -0.6359759966778382,
          0.253810718127485
        ],
        [
          0.024678016481919453,
          1.3260668167910246,
          -0.2165381256384033,
          2.2938152395725977,
          -0.02693125916270475,
          -1.4935733738564905,
          -0.16443398361417794,
          -1.322847489988851,
          0.6241700136558739,
          -0.9027713970121859
        ],
        [
          0.648464460494307,
          -0.24898561171546213,
          -0.00876557241157066,
          -0.8475268030662049,
          -1.1591355871819733,
          0.0850889923564956,
          1.4331207148744818,
          -0.061575186260725,
          0.23586227100842555,
          0.10764758470610857
        ],
        [
          1.3672334365815826,
          -1.0060605135623741,
          0.4977963670427487,
          0.4271877804735731,
          0.7240958585789314,
          -0.4927528453846281,
          1.6662543513482013,
          -0.6733809600358484,
          1.76113509457826,
          0.5258916898968319
        ],
        [
          0.8193183745648833,
          0.6268390369861447,
          0.1499548340472543,
          1.8557646905750518,
          -1.0100565185025692,
          -0.941156767782078,
          -0.9687049789074954,
          0.5393246019037917,
          -0.9238023306435083,
          0.5577856875724507
        ],
        [
          -0.1071144870797401,
          1.0009897163553882,
          1.0396200951460883,
          -0.022788523855804193,
          2.4635597995267933,
          -0.4671264342765908,
          -1.4886052122636375,
          -0.15052486531855505,
          -0.043597988542810766,
          -0.08848097062277387
        ],
        [
          -0.43109494872008225,
          1.9472375988628121,
          2.602930669963283,
          0.8628602670745075,
          1.3361474640604458,
          0.5934683291075431,
          -0.20475339698866676,
          1.4945602852703073,
          0.8948958353379465,
          0.2185139231932093
        ],
        [
          0.7614966163949856,
          -0.5128740538073882,
          -0.5458382493565058,
          0.5447927785186676,
          0.7447759469966091,
          -0.2844978331467227,
          0.06264139078088632,
          0.6967555742941677,
          -0.6492462893272768,
          -0.44037871670669215
        ],
        [
          0.4253997889225318,
          0.4961306597915598,
          0.5143011485476686,
          2.297860929422041,
          -0.03736719004279526,
          -0.33779957848021464,
          0.2901596806315068,
          1.3497838824690145,
          -0.6041893279678433,
          -0.43242866678215236
        ],
        [
          -0.1196621208753559,
          1.8600757705631081,
          1.2693098536339003,
          -1.2982173935623587,
          0.16073626058609392,
          -0.24312330745105337,
          1.803531171282933,
          -0.7681502755417173,
          0.282562154534566,
          -1.0720386448644568
        ],
        [
          1.1613124632053173,
          -1.1020072561179657,
          -1.0665783452067452,
          -1.2992822840175517,
          0.5401654039228805,
          0.41114872469802255,
          0.9753602377125022,
          -0.1035006041100671,
          -0.6445759392750114,
          -0.5055838983461922
        ],
        [
          0.49971010160777074,
          0.40214647302866346,
          -0.17518883482907546,
          -1.04340542927824,
          2.734684971973111,
          -0.799745900707895,
          0.6955057195914733,
          -0.3494850391555751,
          2.524210611118734,
          0.0631005983476705
        ],
        [
          0.45313335108237673,
          -1.3307208678350062,
          -1.5924105087806544,
          -0.03779153790807248,
          0.6885788592158064,
          -0.7589068566206532,
          -1.328963940539333,
          0.8510057969991695,
          1.0182926523056954,
          0.37200382064367976
        ],
        [
          -1.4449026969253111,
          -0.15386814660289028,
          -0.8467732649322947,
          -0.4035283174992813,
          1.1960993284387416,
          0.2006503546093951,
          -1.2472319590233598,
          -1.3144689239764673,
          0.24878962488817558,
          2.2424322083743675
        ],
        [
          0.3613815610739657,
          -1.235209785867512,
          -0.4330728751415742,
          0.33202035813861674,
          -1.6493269577138938,
          -0.5896102319461952,
          -0.6500186322610344,
          0.026434710740281052,
          0.04615157356622718,
          0.11084316927568229
        ],
        [
          -0.9670281326985758,
          -0.6804512673173169,
          -0.3906614819217399,
          0.6745796180881483,
          -3.077144840021998,
          0.1543194922629397,
          0.08867013598268356,
          0.22070511217467648,
          -0.7516456097867116,
          1.7848856812541178
        ],
        [
          0.1450401769461627,
          0.7851166119725611,
          1.1640890751776412,
          -1.405231400949761,
          -0.5228814759560787,
          0.4389000148423334,
          -3.112037287441106,
          -0.48495485934113053,
          0.7774223336699171,
          0.9623653528617058
        ],
        [
          -1.4679442670718807,
          -0.2819737862257581,
          1.583096117513294,
          0.013161229451874135,
          1.1482155983786828,
          -1.749580794421324,
          0.22900410930186346,
          0.9254312271960835,
          -0.8872086913850503,
          1.194895732065733
        ],
        [
          -1.3702640484101538,
          -0.01794990535973047,
          0.305433015489932,
          -1.5695164912297948,
          1.0292007117121742,
          1.0750440144911608,
          -0.3674732995699127,
          0.9929380417061645,
          0.42462988469498575,
          -1.5608544529700354
        ],
        [
          0.9250102281892798,
          -0.0531082355761642,
          0.546481907239398,
          -0.0379798903142007,
          0.5419703246442928,
          0.06781757818975115,
          1.5820852080062064,
          -0.1330443723427556,
          1.712481266780312,
          -0.599566869627344
        ],
        [
          0.7583449763401517,
          -0.1802651340314145,
          -1.2016318463986226,
          -0.43258889633289244,
          1.6353070709210735,
          -1.1120435376455287,
          -1.1847023464193558,
          -1.3141282578847029,
          0.16894821163945045,
          0.45743216191822345
        ],
        [
          0.2565210163834703,
          -0.6007879722821958,
          -0.7016507575618075,
          0.669827618575951,
          -2.0118484868519944,
          1.1989981615776966,
          0.5377313057203271,
          0.9880098994451126,
          0.30924217892702427,
          -1.3708126258022326
        ],
        [
          0.048770687003579866,
          -0.4623338788761461,
          -0.23965695811348028,
          -0.4316212650550293,
          -0.8091933321403797,
          0.016190395608764202,
          -0.404360562222245,
          2.0301043818710065,
          0.17683784627507962,
          -0.6525200478164964
        ],
        [
          -0.8279744516884019,
          1.6804579949320526,
          -0.1034879352214859,
          -1.708896367327794,
          -0.2694540186222456,
          -0.8570881243183219,
          -0.4518388170981061,
          -0.039061186101411155,
          -0.05672626558283747,
          -0.1337658503509685
        ],
        [
          1.342059006701455,
          0.13151454359651996,
          1.336437058338094,
          -0.11407694442058841,
          -0.44832410619718965,
          0.9478252505319527,
          -2.7254920045563495,
          -0.7140615496352543,
          -0.7764620259526902,
          -0.7958955547972693
        ],
        [
          0.12530792111737765,
          -0.16999550108419859,
          0.018184844904993093,
          0.7040649885078961,
          0.9999016741705157,
          2.602809038660267,
          0.816001219462778,
          -0.5938619265281773,
          -0.11818637862030368,
          1.394389462685015
        ]
      ],
      "bias": [
        [
          0.2557900059810942
        ],
        [
          -1.71954148730388
        ],
        [
          -1.2862978548167554
        ],
        [
          2.826427854326531
        ],
        [
          2.150274830643471
        ],
        [
          1.6226713204044827
        ],
        [
          1.2531199102695019
        ],
        [
          0.04663356330003893
        ],
        [
          2.6554090314395205
        ],
        [
          1.2395725765033665
        ],
        [
          1.726783126883145
        ],
        [
          1.0510998822209106
        ],
        [
          3.423632207763318
        ],
        [
          2.3247338211927073
        ],
        [
          -1.3078209572647277
        ],
        [
          1.0269133566809463
        ],
        [
          -0.02153220538855999
        ],
        [
          0.051994440845005055
        ],
        [
          -2.267727615138382
        ],
        [
          -1.9132941745796428
        ],
        [
          -2.4286418514773156
        ],
        [
          -0.0355404775651388
        ],
        [
          -2.8301747279929144
        ],
        [
          -0.8083159552292893
        ],
        [
          -1.2294747245023732
        ],
        [
          1.336393638176328
        ],
        [
          -1.1016727668595827
        ],
        [
          1.545546572755582
        ],
        [
          -2.6304945416639756
        ],
        [
          1.4238898733073213
        ]
      ]
    },
    {
      "activation": "tanh",
      "activation_prime": "tanh_prime"
    },
    {
      "weights": [
        [
          1.0368858586925784,
          0.8223824456978278,
          0.4042983196739907,
          -0.8687943169910654,
          0.796352169360768,
          -0.49302037854345576,
          -0.34685546240238313,
          -0.08932266935480615,
          0.9496205067642309,
          -0.3699251753810745,
          0.9806625988449645,
          -0.02632220848043663,
          -0.19603305129716592,
          -0.10647724014513983,
          0.4245214999371043,
          2.707555986075857,
          0.08371034030659187,
          0.7052760631244255,
          -0.8185364275054133,
          1.230872193776547,
          1.1584944757914042,
          -0.0772064359903548,
          -0.7710534459827032,
          -1.1232748714694152,
          -0.6562778515668013,
          -1.6113796793671238,
          1.3425738110127554,
          -1.778703477011352,
          1.28452664629196,
          -1.9751252375820936
        ],
        [
          0.03563499972292026,
          1.0705987465888502,
          -0.8812663607739626,
          1.0077387785175376,
          1.641346058037454,
          2.651105950234898,
          -0.2097755934787441,
          -2.61320275960215,
          1.0982014738141435,
          0.6454735658632592,
          0.5295070408864566,
          -0.975401421554178,
          0.0006734280771539477,
          0.8004584059831544,
          -0.6828716564550941,
          -0.2620776663219099,
          0.77565684534219,
          -1.4161811836278557,
          1.0968459965959263,
          0.700093599146636,
          1.0528318679979094,
          0.09970866364548145,
          0.6213681321105949,
          0.42626551431552784,
          -1.125323446152819,
          -0.7497315312407253,
          -0.9701934637994616,
          0.792242269821213,
          -0.068023015822771,
          -0.7552537828753347
        ],
        [
          -0.6670388809622383,
          1.386586768496067,
          -0.76955050890891,
          1.5392319128358631,
          -1.2020773455148228,
          1.3595765991326327,
          -2.1620422442003004,
          -0.2650017851264399,
          1.7782548949302146,
          0.536568964265937,
          -0.34150030025315814,
          -1.1712114919293513,
          -1.8361607234625765,
          -1.65577237960636,
          0.9182299660282247,
          1.1274601753369065,
          -0.45818741891745185,
          -0.6427758689167343,
          -0.031732605128268226,
          -1.4452683959978128,
          2.793948959199169,
          -0.25737653938318417,
          -0.0355701806362626,
          -0.0160018138753513,
          -0.6871583442642322,
          1.1895697626842816,
          -1.1592713757445627,
          0.4406307650358753,
          0.5133053690465744,
          -0.6577152546651183
        ],
        [
          1.653192589201729,
          1.4673420768423873,
          -1.2925565128917138,
          0.5419712340022882,
          2.113047636409106,
          0.3031174872847775,
          0.17601068264678793,
          0.36878511540434067,
          2.1798195972114467,
          -1.9506348712768509,
          -0.23403866509180016,
          -0.1239412048910776,
          0.016852012600590306,
          -1.816331105836746,
          0.25380938763554123,
          -0.4725571461281325,
          -0.854747332825547,
          -1.0313504643199582,
          -1.837941094019781,
          -1.0855351543785783,
          -2.48642805941731,
          0.08793016724004958,
          0.33197282016028207,
          -0.5490360153764431,
          1.5571237204907298,
          -0.5575615388919971,
          -0.2902699558750607,
          -0.5218907297217583,
          -1.750122010381462,
          1.0742637802331345
        ],
        [
          0.2895258403433658,
          -0.11937813966290954,
          -0.0063735694231233314,
          -1.044058009061667,
          0.37660498092196565,
          -0.07547292717099431,
          0.42693421475179333,
          -1.1749798313242343,
          -0.4360688682524176,
          -0.8076542491201649,
          -0.4691459738795705,
          0.08722734074745592,
          -0.0011286273124392618,
          1.8754363276185806,
          0.3676215146177688,
          0.12916684264360895,
          -1.0879309457411912,
          0.26317084774534827,
          1.5619912286273097,
          1.0661369855538023,
          0.9562935636992931,
          0.06799441334066432,
          -2.5245389241033553,
          -0.6263540556779184,
          1.678948825820209,
          -0.6512959532613903,
          0.7635888798078838,
          -1.2902792096072075,
          -0.009750159518475562,
          0.07634854710577824
        ],
        [
          -0.45377317407743684,
          0.10653409399122615,
          -1.3454870941002823,
          0.5512147450818755,
          -0.7731194301656784,
          -1.897873560106907,
          -1.615279241913772,
          -1.040699462240323,
          2.0196645280956242,
          -0.7187594351303114,
          0.9159632931713334,
          -0.7303238283719943,
          2.933656104657539,
          -0.30784079603579534,
          -1.3447959757194672,
          -0.32389643686613456,
          -0.5763355571638237,
          -1.1790080249359987,
          -1.2764119875402922,
          1.2128188640242183,
          -0.7805851062211002,
          -0.8896187867941034,
          0.5140120733303963,
          1.0951268903421654,
          -0.06526460269784168,
          0.06736207628441637,
          -0.1379658866492877,
          -0.8317615549871157,
          -0.2182185799207293,
          1.351646628055028
        ],
        [
          -0.9390368221222495,
          -0.16667919136607295,
          0.641151790185719,
          -0.13718602880015007,
          -2.9928322725158623,
          -0.533084820940582,
          1.497935781753178,
          0.67624662847534,
          -0.4582359508341816,
          0.2971556616247918,
          0.6049665728827861,
          1.162892912885516,
          -1.4608939656557558,
          -1.4451956565737274,
          1.4355481450994996,
          -0.4894626847763697,
          0.5776351316299346,
          0.4012255178050627,
          -1.177275412520785,
          -0.569389991350639,
          1.1208628955077373,
          -0.16324941282327454,
          0.751809869853539,
          -0.20536388912597311,
          -1.872382061314818,
          0.8319709769767744,
          -1.1235321561344758,
          -1.99471826829293,
          1.5226408927245718,
          -1.4043096176664303
        ],
        [
          -0.9873009594231793,
          -1.0803586333473645,
          -0.35782508544506775,
          -1.0797425162146237,
          0.2790693703981191,
          -0.6814129873139742,
          0.8797626856530737,
          -0.4347222930827716,
          0.1341721435113942,
          -0.744699037539254,
          1.7046997317716175,
          0.10342228685361347,
          1.3017715425534286,
          -0.12169437478703261,
          -1.1970536063329014,
          -0.9120503098266892,
          -0.029573631230453472,
          0.8121578573089311,
          -0.18754224268003403,
          -0.29258248443686913,
          -0.23157500522321298,
          0.02729845563317284,
          0.2942608048670038,
          1.1921193354128354,
          0.6975290568999608,
          0.7403463674704831,
          -0.04671343115891131,
          0.6209654218708868,
          -0.530328384333573,
          0.08354092960920573
        ],
        [
          1.1606355955870522,
          0.035894817021736636,
          0.08557486347678767,
          2.1385853838217708,
          0.49422983380676894,
          -0.4325294291594139,
          0.31702641014106714,
          -0.7313337523606979,
          -1.1268367700287696,
          -1.4210250092015715,
          0.34594755996929066,
          2.3678901567298585,
          1.2498517020048765,
          1.6523412551093328,
          -1.1796613312481374,
          0.998393502490384,
          0.19111304376804472,
          0.07086643404365393,
          -0.06658034244186802,
          1.5131421129890303,
          -0.6204870059950373,
          -1.3928823986477956,
          -0.7867641800392906,
          0.14228645692621042,
          2.7514951174139797,
          0.3377988929470553,
          0.425234650538582,
          0.31712565103797746,
          -0.1454567106465922,
          0.5797986055961751
        ],
        [
          -0.2503841354868931,
          1.40874571144353,
          1.820938874892319,
          -0.6875741483497781,
          -1.0064846939507057,
          0.16859907233072144,
          -0.915279088972721,
          -0.17491528657940622,
          1.521599175752896,
          1.2870470133032519,
          -1.5952000636583266,
          -1.2121651763170456,
          0.6174158843790853,
          -1.0840809867108554,
          -1.9925718961256589,
          0.023480084504204364,
          -0.44798827596963964,
          1.2711913452538026,
          0.12534250835944377,
          -0.06466729842224091,
          1.076369380588965,
          -0.5023227266519603,
          -0.529090484866957,
          0.10228876640276419,
          -0.18678976463100228,
          1.3478986465440947,
          -1.361673208080652,
          -0.4789953079758354,
          -1.695570093837537,
          -1.6053937582574487
        ],
        [
          0.24184137672698072,
          -0.44099281164016746,
          -1.3453518346402427,
          -0.9860446902173062,
          -2.308467104865088,
          1.076898184334167,
          -0.5057624549113958,
          -0.20579648553640503,
          0.031871207507452315,
          -1.6843386758785088,
          1.0332295289988689,
          -0.5061167062849776,
          0.5797383578328109,
          -1.1906045946308172,
          -0.37453698718135575,
          -0.38348941706889494,
          -1.9676061900299988,
          -1.0330964029445762,
          2.19359659929834,
          1.439909057965423,
          0.6902005380825197,
          0.7529591747979832,
          -0.7871299814322943,
          -0.5285679285837959,
          0.47387899532862277,
          0.9423576815315341,
          1.8282206614377883,
          -1.644604211761702,
          0.2102311488366636,
          -0.7689244242205981
        ],
        [
          -0.37836708852893297,
          1.153005314400484,
          0.46762236023429776,
          -0.7609118473950226,
          -0.13818280631777755,
          -0.21806825213879058,
          -0.4171493749554523,
          -0.0386003327706022,
          2.54595843716211,
          0.12384671026154465,
          -1.6344492501350327,
          0.3334073514337574,
          -0.5012554121903346,
          -0.3070965079559284,
          0.5729109869757223,
          1.277820197123057,
          0.34753316970683273,
          0.7318877022034431,
          -0.055549232479115404,
          -0.21314209542806617,
          0.17169976563161446,
          1.1934567328680776,
          -0.15290330651384512,
          -1.6985479017172866,
          -1.0331776798848835,
          -0.22370913253138683,
          0.9075574620567167,
          -0.15729673891566762,
          0.8498320482398447,
          0.22587783433478328
        ],
        [
          0.5591268089004423,
          1.756341006180141,
          0.8445195329521001,
          0.1341788578912177,
          -0.8321074708938443,
          -0.5661129285759742,
          -0.6267096832532232,
          0.44885992406308767,
          0.9955635000735525,
          -2.5369492469961137,
          -1.3236149483764261,
          0.3652329717232316,
          -0.48993742125175144,
          -0.08922300478317381,
          0.2741249708396041,
          0.8448457543579692,
          1.6164256202274834,
          0.6178599266673165,
          1.5561742831308674,
          0.09333846196560379,
          1.073178170713093,
          -0.18628024711866312,
          -0.8353557279242378,
          1.4447775449511304,
          1.0825948296645798,
          0.0185697711017881,
          -1.1647601173745725,
          -0.03787853234601805,
          1.318600504549735,
          -0.321874337857143
        ],
        [
          -0.10039439749232096,
          -0.9872925043730154,
          -0.2996689242775203,
          -1.2294238456937048,
          -0.542088017915889,
          -0.35096349600670396,
          0.2471185594770793,
          -1.1520038377362363,
          0.9238521883829486,
          0.09742999599800406,
          1.396221589480393,
          0.6139679160705286,
          1.8530565835953756,
          -0.045691157322976725,
          0.03018611630627511,
          0.7739196769501241,
          0.7995837329309738,
          0.792524710336416,
          -0.5585265871443026,
          0.10284703001678558,
          -0.38482249286555015,
          0.006875950719091154,
          0.5571891659165592,
          0.951065111115311,
          -1.7731362776237516,
          0.6257193894922917,
          0.2874304210341509,
          0.17387009899390587,
          -1.7127023313966903,
          0.293548127196279
        ],
        [
          -0.785358732514189,
          0.3759619884051746,
          0.7440751709635397,
          0.6300619651630427,
          -2.42147334903335,
          -0.03474808958095066,
          0.3102629206642515,
          0.5222662167938442,
          -0.7489718727666433,
          0.9642753535611632,
          3.460159650553475,
          -1.3237855861135028,
          0.027747137267200593,
          0.13432659862233065,
          -0.504757784547606,
          1.347221883328002,
          0.038070368071613445,
          -0.6846680176889957,
          -1.2061021720916068,
          -1.048276801714222,
          1.6065010760026062,
          -1.7455362699172898,
          -0.511001498417397,
          0.024166654660404845,
          -0.3622704363599599,
          -0.25236602195288305,
          -0.6552745964327945,
          0.6262673929033475,
          0.08817307897543412,
          0.32326597448118394
        ],
        [
          -0.6176908611464639,
          -0.20069300264373816,
          -1.6751550630688408,
          0.7319633692626796,
          -0.8211174340652737,
          -0.34902539646735625,
          0.5605289735224608,
          0.9837164324801276,
          -0.4331207761657857,
          0.43646499607256384,
          0.9221189115184171,
          1.0892348196122008,
          0.8569589370295946,
          -0.6973790343247087,
          0.4643727709731423,
          2.327774069309094,
          -1.037311066610475,
          -1.7296639143150616,
          0.8882719003840348,
          0.11165100354035193,
          -0.16388412793761942,
          -1.2399623726075668,
          0.5314063705348739,
          -0.41576620595404923,
          -0.9066891877963321,
          -1.013947533942655,
          -1.0955583164586347,
          0.41782703678191674,
          0.8500866618207882,
          -0.2833227217536765
        ],
        [
          -0.4475533485859645,
          -0.43570880408863044,
          -0.16037904687203525,
          -0.8749265766922651,
          -0.31442481855184196,
          -1.1998457410696852,
          0.15290620411858838,
          0.9607647869956649,
          0.31367932102695495,
          1.270152038844405,
          0.03292728912012048,
          -0.1998668247329809,
          -0.46077863645625367,
          -0.6571501703891833,
          -0.47088988858640846,
          0.6586533196765907,
          -0.35163129391862247,
          -1.3861048129477107,
          0.5674818670975283,
          1.0156203794548049,
          1.880629589978202,
          0.39490621746137117,
          0.922716083299407,
          -0.5270056665853687,
          2.6381672483457543,
          -0.9422757711535806,
          -0.4169060374385485,
          -0.42216879845244426,
          1.3139826130400865,
          -0.6831584706273925
        ],
        [
          1.4701750336323893,
          -0.728592390960255,
          -0.3959796493457006,
          2.1025241591065957,
          2.107398421158787,
          -0.9076323290957996,
          1.6021392226803646,
          2.809494972623604,
          0.29940007105631766,
          -1.7147663879757136,
          -0.3188679707947076,
          0.0912974936767023,
          0.5056869932747442,
          1.1778299693008525,
          0.514318905168934,
          -0.11451930152250041,
          0.181059731886703,
          2.1429837630856383,
          -0.6049412689483008,
          0.894296102261933,
          -0.04462292289638615,
          0.8067810414540794,
          1.2628254927470173,
          -0.9099750643481133,
          0.23098119149790472,
          -0.01716467556613265,
          1.199257178370481,
          0.7428894744560278,
          0.9743198215980746,
          -0.5256512797413034
        ],
        [
          0.19677120392851735,
          1.4223025153732463,
          -0.41332032251057965,
          0.6560824541014244,
          -0.7533534541473705,
          0.33993875501883225,
          -0.7389545098478527,
          1.1918112141872805,
          -1.7827813620024457,
          -1.6201793202324009,
          0.6154111559627113,
          2.1710799731185326,
          -2.5900538032895697,
          2.2082371201118143,
          -0.6876247376100364,
          -1.0638590449845822,
          -0.20183717246648666,
          -0.25555411839855624,
          0.6476082042109025,
          1.0383743564411305,
          0.83907658234185,
          -0.26889382477239404,
          0.48923068295185523,
          -0.9668799616252635,
          1.7226464742539587,
          -0.06967404387348708,
          1.1935769002735204,
          -0.16299217302604344,
          1.55949851719095,
          -0.75840116233647
        ],
        [
          -0.8480329524309282,
          1.8877286224970151,
          0.5983383361547631,
          0.141116031362514,
          -0.9166770920938385,
          -0.3431245376628177,
          -0.42056574875519137,
          -0.9621753681344363,
          -1.378100071008335,
          -1.2850450406010236,
          -0.23097677752873602,
          1.5697495774120829,
          -0.32654234437826485,
          -0.2844287089398036,
          0.03778121130869168,
          0.3720619569246326,
          1.3386704413367796,
          0.3813201003800335,
          1.654950565890774,
          0.33256395771697755,
          1.5220746554319817,
          0.10617736819405932,
          -0.9242571477840358,
          -1.4687949994368195,
          -0.946419867372453,
          1.2987498157407458,
          -1.635442674975271,
          0.8096070482983879,
          2.5427076602426064,
          0.4147222917109183
        ],
        [
          -0.13579433222130505,
          0.060441018604975846,
          1.1260451123349506,
          -0.5336199599227992,
          -0.30858026467801425,
          0.7501850516895816,
          0.3509838052335437,
          -1.2567754080582532,
          -1.051075356155844,
          -0.7432975151945166,
          1.5215111306954587,
          0.31828715230607657,
          1.3341345048150859,
          -0.9633211109588826,
          -0.19836168517068867,
          1.0416569895592962,
          0.8588719363857793,
          0.7799952263250999,
          -0.462836834621651,
          -0.5041327534096464,
          -2.284543715494652,
          2.2572460639860332,
          0.27970494278106584,
          0.5785289192859702,
          0.5739688700912408,
          -0.010684390944710019,
          2.4245720204475596,
          1.5572088484982451,
          -1.658027259994115,
          0.36481101039930497
        ],
        [
          0.664536389520849,
          0.5903435973895916,
          2.0834466559547558,
          0.13344598230628343,
          -1.1286929880302732,
          -1.6625211000450175,
          -2.0016251754654926,
          0.12484350313940348,
          0.6147541653948705,
          1.8769424010417197,
          0.37544394299623046,
          -0.33464006351051095,
          1.3124783071124797,
          -0.047904281551613324,
          0.7971848370361024,
          -0.21367226724886423,
          0.11896930734035478,
          -0.738061728214698,
          1.0417635578925786,
          0.6571546228660506,
          -1.1580273530349487,
          1.0646911823565068,
          0.2539394003686008,
          1.3395508363154593,
          0.2650346060211477,
          -0.07607621244793983,
          0.271120829150963,
          1.2217220529935475,
          2.100588038212656,
          -1.421848432030089
        ],
        [
          0.43187404092223447,
          0.40845763292479037,
          0.045952017987664545,
          -0.6238892996859956,
          1.0524025954333132,
          -0.5073074111182624,
          -0.17062934146585335,
          0.300098989795146,
          -0.4469916183409869,
          -0.7290807280982643,
          -0.1358097554680894,
          1.2992919116278674,
          -0.726967688681383,
          0.13819088696559212,
          -2.440780111735142,
          0.09351853907890383,
          -0.8361625637568959,
          1.722603769304835,
          -1.0223446208275682,
          -1.9843096759655183,
          0.1679118991352423,
          0.6179957528881503,
          0.4023470913218308,
          -0.5973839295075722,
          1.0376872363356724,
          1.3532988809728774,
          -0.03946467571865955,
          0.900438808296049,
          0.10625338985850756,
          2.69278480449284
        ],
        [
          0.5964882901433789,
          -0.7168356003251033,
          1.6583272583876114,
          0.4776934161992631,
          0.056877037948189844,
          0.1572052744804716,
          -0.8696029357853218,
          0.11135588117649045,
          -0.810526897471273,
          -0.7949770557495784,
          -1.2167406465164954,
          -1.536432822944944,
          0.13412646505622158,
          -0.7643559503599683,
          -0.11282849186705902,
          -0.13671432079473597,
          0.2608673223978423,
          -0.7003508331563495,
          0.9633141450572912,
          -2.4595963141358297,
          0.048697287340827726,
          0.8171057893602137,
          0.1858659988505225,
          0.5409695931601719,
          -0.046162248274581416,
          2.08389105377012,
          0.8485330894054347,
          -1.4166911188450668,
          1.703213381033741,
          0.3880493378522817
        ],
        [
          -0.44791568443913876,
          0.34952748691387536,
          0.11073805286966384,
          0.21797521263066258,
          1.23168334451592,
          -0.293239733937968,
          -0.5368232685695217,
          -0.1490737371450405,
          -1.3150228755373239,
          -1.7693515733741196,
          0.008839160925913641,
          -0.7205788854154346,
          -0.24015395044194016,
          0.8336676611070208,
          -0.7125658359155758,
          -1.5792546551516886,
          1.0522030500706878,
          1.2472459616999934,
          1.3919819645639406,
          1.6747829397095801,
          0.2736529291560934,
          0.36656471976452365,
          -0.20610912049574012,
          -0.9694215189933132,
          -1.6740024458144975,
          0.28448409958459897,
          -0.505831062643857,
          -0.3672821121247524,
          0.9743348418583361,
          -0.08558670751279117
        ],
        [
          1.0511324950584255,
          0.5728143926055744,
          -0.5297368453282961,
          -0.9678743154873414,
          0.24702836313673945,
          -0.141214225844588,
          -0.29449576304565095,
          0.060630971722550775,
          0.5426030575271067,
          -0.22157312826158493,
          -0.7340582702389478,
          0.7827241398561251,
          -0.19791682432575453,
          0.5209676894403233,
          -0.36254222006142817,
          -0.25412246888724377,
          0.3854975274543181,
          0.16317659711961902,
          -0.42961241765532526,
          -0.42700644892229156,
          -1.2603595427106828,
          -0.04851509460928374,
          -0.5984598660612824,
          -0.2041246150839059,
          -0.5863575527628523,
          0.8696138393389264,
          0.6903797153722492,
          -0.4523241297305264,
          0.09550255395447599,
          -0.09883234915456422
        ],
        [
          -0.009011425253357578,
          -1.486088295336424,
          0.4441410585071746,
          0.4384017595346355,
          0.8236665685602074,
          2.3159669933300746,
          0.322626008255585,
          -0.5874226046019367,
          1.1510545273601758,
          1.0540050484160994,
          -1.347962586116752,
          -0.12206706326517072,
          0.03792019391919098,
          0.596187027833669,
          -0.6526323742367385,
          -2.7308324745627583,
          0.32702598821796264,
          0.525596302798102,
          0.07499314982972859,
          -0.5430662016184021,
          1.3501102284539304,
          1.3620390961457474,
          -0.12991094477003287,
          1.030179430272656,
          -0.18842299833247123,
          1.3799448474317453,
          -0.7503578043195546,
          0.31735397792655556,
          0.11529464546330798,
          1.4369844337646573
        ],
        [
          0.5631014177961665,
          -0.12543620842601017,
          0.4504526439596381,
          0.23409052321209703,
          -1.5113227767329431,
          0.0010766022184156066,
          -0.1635268707030465,
          0.6894627159767287,
          0.5076341220165248,
          0.07147052317993535,
          0.8662693653568455,
          0.6200524351186132,
          -1.2288414797731237,
          0.6954388107079919,
          0.7315197545989397,
          -0.8198740948457269,
          -0.26369001979840034,
          1.5246304745524264,
          0.5905161750270846,
          0.5016626368976899,
          1.2557071271726252,
          0.5181884421602668,
          0.4680684809713467,
          -0.27212850713820125,
          0.7395772925389342,
          -0.4495205484729201,
          0.49230262240340195,
          0.9230707368785515,
          -2.173004408214655,
          -1.238390688463208
        ],
        [
          -0.02612814713742954,
          0.1196414038399694,
          -0.9718112806096323,
          -0.4109122661188934,
          0.9758106037422583,
          -0.762186554367636,
          0.18872045425425707,
          -0.47402131424633986,
          -0.5575169874802952,
          -1.0740887602761107,
          1.4548873272265244,
          1.2313040321717517,
          0.3765902336047533,
          -0.6493205087713879,
          0.17159978294756187,
          0.7914472451067754,
          0.16571735354357717,
          0.8902652003999577,
          0.5844957006333708,
          -0.9898473508367427,
          -1.0709244731733856,
          0.2109203428615792,
          0.1279317438774956,
          0.6017333987136068,
          -0.46810215368950175,
          0.21729991613596006,
          -0.8062390658207277,
          -0.2335749576612812,
          -0.30370763722529703,
          0.19183636506371232
        ],
        [
          0.4788278456127379,
          0.030610240754966263,
          0.13687870001090116,
          0.6874529353841413,
          0.40163098793622776,
          -0.7828035618849882,
          0.8707259277151961,
          0.39783932517218795,
          0.31738925415408414,
          -1.5151298873406402,
          0.6145447564565685,
          -0.4815156833155086,
          0.8997056113130052,
          -0.13093624279724542,
          0.16573028652553123,
          0.9774389488345299,
          1.1205918885334316,
          1.2677065143299393,
          -1.5519319979504567,
          -2.043938179022886,
          -0.497895818747369,
          0.3559750784870364,
          -1.1770492556701253,
          -0.8666387286753676,
          -0.2680683915407438,
          -1.6164197347850546,
          0.7640314762145711,
          -0.8614490669195487,
          0.5199224462312766,
          -0.750127375070155
        ],
        [
          -0.555124196197049,
          -1.3496904794991917,
          0.3350548760054938,
          -1.1625189182598288,
          1.4695982019782485,
          1.5386942240162478,
          -2.906493109163164,
          -0.39406610571398315,
          -0.23337143211343822,
          0.47985463463380057,
          2.5210852417718868,
          0.2649301669771915,
          -0.059761290115128755,
          -1.0374755168731384,
          -0.14592417095578467,
          -0.7325279257876267,
          -1.7908805859564128,
          -0.5009744802903136,
          0.5948289406710473,
          0.2640951099398175,
          3.9578719156420603,
          -0.771931781878765,
          0.44089256478580346,
          -0.7493869766698553,
          0.03719293374940991,
          -0.010241116451774633,
          0.7438546829959863,
          0.06635012037388907,
          1.8129872338803785,
          0.8817268996845253
        ],
        [
          -1.8615153935032014,
          -0.493996712828285,
          2.1449361346488893,
          -1.4151531247097011,
          0.4195657508600158,
          -1.2429310584966458,
          0.9545836013836454,
          0.704494995290475,
          -1.5269406108518553,
          0.7000711962216785,
          -0.2961138678807838,
          -1.8713281402245596,
          -1.1140829422160679,
          0.8943912135310585,
          0.034738154394810546,
          2.505048309611544,
          -0.9443122071773424,
          1.1550175080882623,
          -0.9718236536073617,
          0.13020439548144228,
          1.0371731554695658,
          0.25114526683529376,
          0.587171362732434,
          0.14825966868467635,
          -0.42658829328713643,
          -0.49449685960717593,
          -0.23403304960778154,
          0.7132797254607152,
          0.030311348661364028,
          -0.4665565032603924
        ],
        [
          0.6864979412819323,
          0.9232834170096156,
          -1.1811004961241436,
          0.21980261544490104,
          0.5432683561097655,
          1.4056425742971055,
          0.9862534080684486,
          0.11761175130455766,
          0.029484981627660438,
          1.0946677987506157,
          1.3909563677030128,
          -0.28461004789868594,
          1.14372756888459,
          -0.3171305129784111,
          0.3247977823891954,
          1.0096799377240842,
          -1.2296595380745936,
          0.7089050010654332,
          -0.5344058644059346,
          0.2253570470124348,
          -0.38854201002069005,
          -0.36018684600941375,
          -0.8888821152263952,
          0.17411368294678622,
          -2.0788403818372494,
          0.4836850239755665,
          0.6189350742989507,
          0.6753581451852122,
          0.3552646675473201,
          -0.6252399931262492
        ],
        [
          0.4639884200661116,
          0.08685064789568228,
          0.6453778063817647,
          2.1505733049639426,
          0.20593140024606846,
          -0.519194184323148,
          1.2872074318693947,
          -0.5879246076364995,
          0.890346636658628,
          2.0320577416548735,
          0.8662598825780271,
          0.33769043265106286,
          -0.1434987004924688,
          -0.20085008210343694,
          -1.5688461342258702,
          1.2715580784543465,
          -1.1865665468672033,
          -0.24604919055393384,
          -1.721173876006505,
          -0.24332232718358537,
          -0.3685421746819557,
          0.46791612773008684,
          -1.1396750671379452,
          -0.3734619575521859,
          2.1040198352015382,
          -0.9811488761561684,
          0.519937987392331,
          -0.7700548862750681,
          -0.5754832187359025,
          0.8304510830459453
        ],
        [
          0.5541806258411931,
          -1.0836220499034614,
          -0.6716691570853337,
          0.1525105980400586,
          -0.04243461903657001,
          -1.2774114311373586,
          0.08597856288977898,
          0.8072844789088203,
          -0.9469438829758152,
          0.26866875590037625,
          -0.4424526461632798,
          -0.6485656840513486,
          -1.1193433587843564,
          -0.08816520579312476,
          -0.056778701540730225,
          0.9636505125454565,
          2.5038296466575156,
          1.0073398207638378,
          -1.1470142213033598,
          -1.13394027969791,
          -0.6092404413547777,
          0.22137645047305057,
          0.3231464065704277,
          0.8755797757459034,
          -0.47265201055449796,
          0.8538142272100276,
          -0.25056618123755514,
          0.9552956234031718,
          0.010810026347435232,
          0.5348479040420117
        ],
        [
          1.3384706321221507,
          -0.7749754685709506,
          -1.7987077917256,
          1.4185713159074298,
          0.5737219621930645,
          0.9406598918139011,
          2.6776852669524116,
          -1.1656625466829476,
          0.5008988487104219,
          -1.0605919836505184,
          -0.6080035795202772,
          -0.14952096704693413,
          -0.004389381695372447,
          -0.6657631334547524,
          0.19065810638160324,
          1.1505581555596525,
          0.6817725311748846,
          -0.3729305159548776,
          0.1664317876966254,
          0.27718166517807313,
          -2.866389495833683,
          -1.8446791945397016,
          -0.9202517824723184,
          0.014174005461498869,
          1.1358816915850436,
          0.22299414418441207,
          0.6328198031085329,
          -0.9752956302386611,
          0.10801623073079598,
          0.8928102079764203
        ],
        [
          -0.25748486073698956,
          0.6450571302581718,
          0.9598922400447276,
          0.35217724331824873,
          -0.17434889438943374,
          0.922878635799422,
          -0.7744159057852315,
          -1.177399071468318,
          -1.1897742229328314,
          -0.5574006991203914,
          -0.9325988325539845,
          1.1805722002949668,
          -0.11440824660555557,
          -2.368831957100745,
          0.1444459983400973,
          -0.1241949367336314,
          0.005961964129492415,
          0.7744842559732735,
          0.3989757733460991,
          -0.7511048498011406,
          -0.9943228089075817,
          0.7838749397249293,
          -0.24783015401650438,
          0.6726501344362161,
          0.3407974406924709,
          -0.3938654878941871,
          0.43374137315457645,
          0.40881439320488083,
          1.4891940701535593,
          0.5230824171108919
        ],
        [
          0.05121902561130486,
          -0.5164843405128343,
          -1.3142671639483443,
          -0.24834387901495344,
          -0.4748799761188913,
          1.9948457892057112,
          -0.3541870261016064,
          -0.8796058450859577,
          0.5269912926194368,
          0.908193051183777,
          0.2937428928114489,
          1.6919595571171993,
          0.5630858804728237,
          0.020079437425100093,
          0.2696903877917101,
          1.1680212918680928,
          -0.013662109768101408,
          -0.28555463290166466,
          0.7276919618814062,
          0.7996820687812639,
          0.40200776975245045,
          0.7431252284693136,
          -0.6367928191669284,
          0.13428061015196757,
          0.3968161867267339,
          0.3177830002967467,
          -0.8447002204103812,
          0.35785050064509266,
          0.21412733369382447,
          -0.7796233998941784
        ],
        [
          0.053131751627158885,
          0.5952813982220719,
          0.5663447982381824,
          0.5544557576302596,
          -0.9398266870476403,
          0.27038264576549315,
          1.775306474775786,
          0.2837893795647796,
          -1.3842099749485979,
          1.0443340185846028,
          0.533479448560875,
          -0.7340906849496974,
          -0.06570979924144943,
          1.763663346431053,
          -1.9585635460025534,
          -0.05589894236624452,
          -0.06729304751849506,
          -2.190104278639314,
          -0.998455340276219,
          0.38496047995775945,
          -0.6285269338074978,
          -0.8282919744941234,
          0.19836305886049477,
          1.0332451940161609,
          -0.0017135795412079888,
          -0.3099512065322341,
          -1.1467779348521434,
          0.8438958424255355,
          1.398464184582508,
          0.6730190698838119
        ],
        [
          1.6939589946829883,
          -0.46972464662798513,
          1.1232255592065947,
          -1.6551143437866382,
          1.9256139664370424,
          0.2075959954405022,
          1.5899368673802332,
          -0.05051884916001882,
          0.6030209889447924,
          -0.0270518322951581,
          -0.5079565168422144,
          -0.3773345710961386,
          1.202091667670857,
          1.2628631546168043,
          -1.3285575390436464,
          2.005281865292244,
          0.7775811498531316,
          1.6964072041381804,
          0.893566378383943,
          1.4513383402327833,
          -0.2461884355136721,
          -1.3934571787496124,
          -1.6785373980610632,
          0.006826836392270449,
          -0.5726428096878858,
          0.0682485094717021,
          -1.2087418075784055,
          -0.006581738602295775,
          -0.027949347143956502,
          -0.4301938379668675
        ],
        [
          0.3615611944917782,
          -0.867050841166903,
          -0.2563615059559699,
          0.02180444038285447,
          0.5216545523502532,
          0.29990789751861086,
          0.9856472067956988,
          0.25636044017242854,
          -0.7602806067097676,
          -0.6874415126609374,
          -1.398474975580023,
          0.061159820411566056,
          0.9750835517984907,
          -1.2188151396005835,
          -1.9786752851721652,
          0.35985809839570354,
          1.7066945554670803,
          1.8780941663145936,
          -1.3458729560563885,
          -0.14144144496989813,
          -0.24854218241937426,
          0.4975000767245777,
          -0.9581242826428396,
          -1.4583536900767082,
          0.3761138718961784,
          -0.4619538683270933,
          -0.44252935347230227,
          -0.31854028783152555,
          -1.6113354813108094,
          1.0074087515333054
        ],
        [
          -0.6319627173266494,
          0.31452736030851497,
          -0.03401567258447641,
          -1.5607351138866166,
          0.8357931454324224,
          -0.5770116146603701,
          -0.28311675028380573,
          -0.8522512847779083,
          1.4675068857371998,
          1.2275566681840577,
          0.9752705388776209,
          0.05505315392218025,
          0.1944440277480856,
          -0.41974368883395485,
          0.18015548520363595,
          -1.48468535972224,
          -0.35816666635339917,
          1.5690187467765513,
          0.7009559537161114,
          -1.6716591803899044,
          0.1244904735620348,
          -0.9482124906673164,
          0.6852191113119414,
          0.04235326054388651,
          -0.4193859572429671,
          1.184712127779852,
          1.8959698312717084,
          0.005351054344927667,
          -1.9114514822476167,
          1.913687172113384
        ],
        [
          -0.3204150409563874,
          1.7510246758773929,
          0.6540581050743104,
          1.5813177340158318,
          -2.5079147262033854,
          -0.5895647177782141,
          -0.7616912803317019,
          -1.6889700992902121,
          -0.23196756612679986,
          0.1547229364515557,
          0.74947998961819,
          0.7841313395995719,
          -1.6779225274204834,
          -0.5469557624809762,
          0.8393692808406777,
          -0.40080583761511773,
          0.22807500409320058,
          -0.3584674333511555,
          -0.031943388412169066,
          1.1175525001747364,
          0.5024750903920535,
          -0.7328931537672505,
          0.6199099870431816,
          -0.8035555251854132,
          -0.6651124773414518,
          0.7208088806444342,
          -0.39661527444867645,
          -0.34728975447689425,
          1.6184979626497553,
          0.9225196440758907
        ],
        [
          -1.8089612558017478,
          0.3004764143832133,
          -0.31858163934164,
          0.346279805181428,
          0.9887286845377895,
          -0.5039110164521593,
          1.4618031366202942,
          0.1797071775414388,
          1.433101334223629,
          0.530646316495706,
          1.5109095115824427,
          0.4913640135766499,
          -0.388067442706983,
          0.07676065570452437,
          -0.8460834008681518,
          -0.9026014442957064,
          1.211574186754937,
          -0.19801516970389038,
          -1.326253982237238,
          0.2854329522065255,
          -0.5009369001735224,
          -0.2509797218551903,
          0.13398409389403929,
          0.8604452153483791,
          -1.5833120361405058,
          -1.6605197698332987,
          0.5948077449105964,
          -1.777423661803778,
          -1.5009355694302344,
          -0.968477999470961
        ],
        [
          -0.3024795534604367,
          -0.7656013804025569,
          -0.6898961814901791,
          -0.5344113096402923,
          -0.4014501205117349,
          0.023534039149810632,
          0.092641935529053,
          -0.42854759794368485,
          -0.5861040315187848,
          0.8834800748008219,
          -2.518148525702018,
          0.7789370307366271,
          0.3782914313118481,
          -0.724838495550972,
          -2.4842189255985825,
          -0.7358927689314424,
          -0.024789618824642146,
          0.358553727250701,
          0.6169329825799219,
          0.01114203148951384,
          1.8973009248849029,
          -0.5825241768707706,
          -1.478265686449804,
          -0.045759432013283384,
          0.3250689565680556,
          -0.9994762658644843,
          0.9401813741337661,
          2.451387708381568,
          0.2484026583081489,
          -0.23121771527228513
        ],
        [
          -2.1623206463068985,
          -0.17948074195039354,
          0.8510348150215794,
          1.0724409171355498,
          0.880646436678142,
          -1.030580154915437,
          -0.6151880494334204,
          -0.8158570499680836,
          -0.025207744398064995,
          -0.8252620086280481,
          -1.5500603389555785,
          1.5764891919407722,
          -0.7289847314589469,
          0.4750024547349358,
          -0.9887138103750347,
          -0.34777494808157844,
          1.0809428508166763,
          1.845741656252401,
          0.35997092308349016,
          1.4654589012796166,
          0.5190653569663263,
          -0.32528777146216475,
          0.8522962764336519,
          -0.2816076695418041,
          -0.13422861214528034,
          -1.436119744164402,
          0.30324050229659266,
          0.2799158506139232,
          -0.4448629236576496,
          -0.8686851506087824
        ],
        [
          -0.3477470726509207,
          0.16270565698394399,
          1.6695273174636975,
          0.059676443722668254,
          -1.6639935872730414,
          0.45978291626529844,
          2.4855772586344513,
          0.8608406336206441,
          0.3648878795696716,
          -0.9447837032159306,
          0.4010666255715119,
          0.32282730282299194,
          2.22530679751153,
          -0.011746403093016463,
          0.6391002108790307,
          0.5674993705833011,
          -1.6030204508025083,
          -0.7126872696964689,
          0.15428995160709544,
          0.7595894146922317,
          -1.3670658044727277,
          0.03988479213491809,
          -0.7315631070042828,
          0.9417420527004922,
          -0.08328646333477535,
          -1.9478436147065439,
          0.4878910084206686,
          -0.21783353418809548,
          -2.385017114531242,
          0.005057824714683795
        ],
        [
          0.3242296486338543,
          0.7974541605184421,
          1.186459169445899,
          0.14951649707751422,
          -0.04779023715049311,
          2.1517852838911695,
          -1.1691075319068367,
          0.07157731892132183,
          2.3342467391327992,
          0.7059021248754004,
          0.5928908548350614,
          -0.45927241404564123,
          1.272710691171055,
          0.3714503136725128,
          -0.2236893223160379,
          -0.37996562731288674,
          -0.45041745475050804,
          1.437001761006293,
          -2.6354277586225443,
          2.4516478386854335,
          1.4132238222169173,
          1.4963082370666985,
          0.9452919147484629,
          0.3123881450967687,
          0.004542048220568087,
          1.7734828778407368,
          -0.7597854180841732,
          -0.13558265473441997,
          -0.8606139458169942,
          -0.30472055145097443
        ],
        [
          -0.38300164911055357,
          -0.5772773239623896,
          0.4127645750540254,
          0.017026452000789536,
          0.7949412714621532,
          2.0168695552468514,
          -0.9036878939085287,
          0.6114005384671625,
          0.5133940657975089,
          0.21744645237774624,
          1.0524941848920046,
          1.6933716035947728,
          1.0024663900957642,
          0.7481020940387934,
          1.200562037753895,
          -0.0084470237823689,
          0.9591919924877961,
          0.6514412620099524,
          -0.8013464002851117,
          0.872205896102559,
          -0.4104248242698923,
          0.4019371070688565,
          -0.68349958767054,
          -0.24875850476665326,
          -0.04765382702219374,
          1.1448267880976684,
          0.4065686439699757,
          1.471782669884609,
          1.6398817629386355,
          1.869186606798889
        ],
        [
          1.0116135734893323,
          1.0853386683185435,
          -0.46458443134627175,
          -0.5473468086287319,
          -1.4797024937403245,
          -0.13624065063109667,
          -1.4488961053093883,
          -0.9762962472265261,
          -0.19953649595375472,
          1.0561586512097296,
          -0.5599737302226881,
          -1.1058103732253155,
          -0.023655844562477046,
          -0.7383601315488544,
          0.03647023729540989,
          0.3643038425542099,
          -1.1058255167860365,
          0.7091368930893334,
          1.1711432823143495,
          -0.025126932645691335,
          -0.9740676402207404,
          1.0549035332676664,
          1.2300389696224194,
          -0.24820281735958583,
          -0.652555038128827,
          2.4313650460661216,
          1.2836157928462546,
          -1.030225929630715,
          0.5145352096804676,
          0.5337632415013023
        ],
        [
          -0.06261120900160944,
          -0.4644033640795848,
          -0.51384247516744,
          0.006445755817263023,
          -0.02285279837829633,
          -0.37154001316353724,
          -0.10774927833786778,
          0.5785013613720708,
          0.8412538692137917,
          -0.2055642473897804,
          0.22006930655473145,
          0.7963979039691048,
          -0.6917464356775174,
          0.177575516504857,
          0.2616121817978677,
          0.5232820272849927,
          -2.010858865206732,
          1.7133232606073743,
          0.6546568404107947,
          -0.07531391949192226,
          -0.1659467474511618,
          0.5924693382185368,
          1.2768506718740087,
          0.4396772175846278,
          0.3326459178528406,
          0.37054170361387184,
          -0.7008551972573586,
          0.026236370312287434,
          0.3390417372030297,
          -0.25626145086606356
        ],
        [
          0.453206787999014,
          0.6584273733770877,
          -0.10211699080900191,
          -0.3847164703955718,
          0.07503677458498627,
          -1.022748326385309,
          -0.8085791830231761,
          -1.4362355881541646,
          -1.947824686983767,
          0.2683969422004505,
          0.14024548132411296,
          -0.7305368141780804,
          -0.5300109295189842,
          0.5593904607602604,
          -1.405034443822692,
          -0.1713861762174491,
          -0.029312796352406082,
          -0.8959078808790357,
          -0.23845961618413736,
          0.7901319138121645,
          2.4709424385480103,
          0.33527308590406624,
          -0.5798854936581915,
          0.7341524355125271,
          0.8326994166368265,
          0.552470008740344,
          1.283783369175958,
          0.2611188378914388,
          0.15155818247163239,
          -0.7652529364852522
        ],
        [
          -0.22103033298964397,
          -1.7301823266271472,
          0.44383364252939694,
          -0.163455281495133,
          -0.23679162997568287,
          2.006173005297413,
          -0.06738529155596061,
          0.39159989020835045,
          -0.9018626781160548,
          1.4268713405287263,
          0.2752036669816004,
          -1.0656990670492816,
          -0.5709467872621112,
          1.0197132099169428,
          1.0845869538424784,
          -0.27721856512880877,
          -1.6049012592247398,
          0.4746477779533715,
          0.111291402428607,
          0.5197763261121164,
          0.5928726363631708,
          -0.9239210316692889,
          2.051106858599787,
          0.6625816770461866,
          -0.14789770103607006,
          0.1686311258600917,
          0.206288027379144,
          -0.23175860842316065,
          0.16045251164055233,
          -0.41404824280436686
        ],
        [
          -1.0615501757936723,
          1.8026997682131418,
          0.43275374006175166,
          0.25984524592667735,
          -0.1956779533956543,
          2.246648320107593,
          -0.09177507077218765,
          1.0968677130448181,
          -1.0481654168565633,
          1.2394424240203183,
          -1.021395827282231,
          -0.7407520945802327,
          -1.8197887204545216,
          0.33245523831090645,
          1.325607140374985,
          -0.6104908215383867,
          -0.12793507845952856,
          0.9626477300016766,
          -0.24897159745533262,
          0.2707754568421056,
          0.4580873406947295,
          1.0945291486578523,
          1.35284312002996,
          -0.8541503799989698,
          0.10951625486529461,
          0.1304703799882572,
          0.4084145693613013,
          0.09825300925777683,
          -0.16671964090514027,
          -0.49886563780634907
        ],
        [
          0.09691183956183626,
          -0.15976041562776117,
          -0.833187793861844,
          0.38912775928216936,
          -0.35508252864717454,
          0.5186812641438538,
          -0.49098218400358196,
          2.46265162950705,
          0.9320731240446275,
          2.9394539942042743,
          -0.14707232465053446,
          -0.28357092138840934,
          -0.9244913554494476,
          -1.5536726438456825,
          -0.8434205360123765,
          0.24177943492989046,
          1.609818621679602,
          0.11602322575748769,
          -0.34179896556229317,
          -1.4938536795560262,
          -0.3986873464656989,
          -0.21757702577307983,
          -0.6643073906780729,
          -0.1724095478797712,
          -2.578689903238368,
          -1.2288689170093523,
          -0.7640833611753685,
          0.9143454194781834,
          0.17498762653240815,
          -1.5842553272521276
        ],
        [
          -1.0215512564527576,
          -0.8452534196365291,
          0.5945241867184009,
          0.026182459546218707,
          0.6505871794023432,
          0.7178551241096218,
          -0.6303549187295383,
          -0.6500818704465373,
          -0.37193596263987494,
          0.3796537370222353,
          0.2499945277171331,
          0.36156083139916534,
          -0.2264575538512557,
          0.6793056125762812,
          0.8105138101523746,
          0.2922312592290146,
          0.7964046842302005,
          0.4747157732187798,
          -0.6627871831519025,
          -0.1680271056927355,
          -0.49308422011494224,
          0.7640729755416568,
          -1.199062274879788,
          0.04215606216514108,
          -1.1354403858293705,
          -0.9956342744642901,
          1.125206762823745,
          -0.6252210049815837,
          -1.217264779588402,
          0.33371450751142506
        ],
        [
          0.3345309229731664,
          -0.7487112275509531,
          -0.6274017354068409,
          -0.4492152786803852,
          -1.5216583816214413,
          -0.4031218798208288,
          0.29474849758566124,
          -0.14455205103373972,
          0.514310099010943,
          -0.39805795373906544,
          -1.7325019888907023,
          0.058635617325996627,
          -1.1474637634685207,
          0.13097879443142038,
          0.7727622969664583,
          -0.19622939249964458,
          -1.0024697308700057,
          1.5864144244785694,
          0.9799334843318382,
          -0.1955716228802908,
          0.8227054564199201,
          -1.7991285214897295,
          -0.12310414856279357,
          -0.05675566522011136,
          0.1821366016768857,
          -1.6275461784351029,
          -0.31785404718331184,
          -1.8378721192102594,
          0.6795485670784197,
          -0.035299453557122995
        ],
        [
          -0.3860826068571523,
          -0.018224336677848854,
          0.2779212353753535,
          2.0001121265226134,
          0.3088936986196626,
          0.601276503512403,
          -0.9462108183212782,
          0.5026689037862315,
          0.9461452724539883,
          -1.3017137323775876,
          0.27837238070555215,
          1.1476388023745654,
          1.5028761071460006,
          0.2953354037602492,
          -0.1717486985941881,
          0.4400714536425259,
          -1.647161642920604,
          -0.3490304473125256,
          -0.7687066166701262,
          0.08806326137292037,
          -0.15918856618398658,
          0.06662056780086643,
          0.5736257740039217,
          -0.7538633562905938,
          1.197929029965232,
          -0.35403821258437906,
          0.16245505989776254,
          1.8194969623521255,
          -0.6492267187510204,
          -0.3447935758149865
        ],
        [
          1.569616474155621,
          0.07189964280812594,
          -0.04559614127224856,
          0.9884541202064525,
          -0.31901093165364186,
          0.48117452060606647,
          -0.25723116549798497,
          0.5452923932585798,
          -1.4967004791833147,
          1.7315651341980531,
          0.8477563590633397,
          0.07573955792498487,
          2.0604843080902153,
          -0.9935811332169349,
          -1.013543269842478,
          -0.945893087709693,
          -1.3931467019744137,
          -0.1452807939861602,
          -0.7033279528479807,
          -0.6719230962329227,
          -1.0329210754193408,
          -0.6470657949883573,
          0.10166152274030026,
          -1.280787068187108,
          0.5602043258734586,
          2.5144880753663488,
          1.1873883634579372,
          -0.2942109830716005,
          -0.12679064459816675,
          -0.11934036097307288
        ],
        [
          -0.051408532387026036,
          0.5350535696784079,
          -1.4783164779983529,
          -1.1508681606787239,
          0.3515405746317264,
          -0.9034218690880161,
          -0.4006795629968379,
          0.12515206565456077,
          0.41041441362475034,
          1.5943974994193835,
          0.9759058191663904,
          0.9305179446310055,
          1.0737997425299628,
          -0.18197960783387235,
          -0.5444478394963148,
          -0.18616059212494662,
          -0.4339012757127503,
          -0.9752916118429942,
          -0.4386644145160712,
          -0.2821944009479445,
          -0.9787100029279315,
          1.4934320882890768,
          0.25807583352513624,
          -2.9623757232968173,
          -0.7082951885762864,
          -0.5490436705140597,
          -1.3464819155001175,
          -0.07826134260850467,
          -1.1548549405093698,
          -0.6486759444433597
        ]
      ],
      "bias": [
        [
          -1.5500752426965712
        ],
        [
          0.0879790254062292
        ],
        [
          -0.7541289669633802
        ],
        [
          -0.5468020659320079
        ],
        [
          0.35311402136768416
        ],
        [
          0.8590355716837464
        ],
        [
          -0.13003993068218678
        ],
        [
          -0.4203398912067041
        ],
        [
          -0.4893515019155751
        ],
        [
          -0.23953406173071753
        ],
        [
          0.22168914480893445
        ],
        [
          -3.080524969664696
        ],
        [
          0.7134434436245544
        ],
        [
          0.02389248972587939
        ],
        [
          1.0514608937093883
        ],
        [
          0.5528428791220708
        ],
        [
          -0.10609192869726819
        ],
        [
          1.3747796959669873
        ],
        [
          1.677809792133779
        ],
        [
          -0.4362161788452937
        ],
        [
          2.0530426268556976
        ],
        [
          -0.46259958764402576
        ],
        [
          -0.3117638253351393
        ],
        [
          -1.3458219672330272
        ],
        [
          -0.8957603741248532
        ],
        [
          0.03414260644509245
        ],
        [
          1.0869650009772578
        ],
        [
          -2.747717422649778
        ],
        [
          -0.7743779630567552
        ],
        [
          -0.7776134802722756
        ],
        [
          0.5032060572262108
        ],
        [
          -2.283564280507766
        ],
        [
          1.20169450346012
        ],
        [
          0.30013318622336
        ],
        [
          0.5885588608274007
        ],
        [
          -0.19032534887510472
        ],
        [
          0.6820119929379901
        ],
        [
          0.8406560071567969
        ],
        [
          1.8224035149547035
        ],
        [
          2.3498660025136155
        ],
        [
          0.7195190382083358
        ],
        [
          1.0782849237953818
        ],
        [
          0.3004164541070907
        ],
        [
          -0.33824316239363234
        ],
        [
          -1.186978163446603
        ],
        [
          -1.5375724648523719
        ],
        [
          1.7975056846625157
        ],
        [
          0.39601835758266646
        ],
        [
          -0.8245474553377511
        ],
        [
          -0.08563246593940757
        ],
        [
          -3.299358369958813
        ],
        [
          -0.5775241889671792
        ],
        [
          -0.7970181395938754
        ],
        [
          -0.07483132098697388
        ],
        [
          0.02377951372032309
        ],
        [
          -1.2823366586792266
        ],
        [
          0.467836376517385
        ],
        [
          2.403842177779366
        ],
        [
          2.142150981200069
        ],
        [
          -0.051191481112947045
        ]
      ]
    },
    {
      "activation": "tanh",
      "activation_prime": "tanh_prime"
    },
    {
      "weights": [
        [
          0.5738228720281847,
          1.3373839030152685,
          0.5785400639058157,
          -1.0035654114791703,
          -0.11654371716399833,
          -0.11811814742591417,
          0.08915193496806072,
          0.27957312163345216,
          -0.06401827393129361,
          0.2365888189924732,
          1.72077325611863,
          -1.463811717179879,
          0.34785227519828504,
          -1.1369157812203137,
          -1.323399454789412,
          -0.8601760572898557,
          0.7458549519266489,
          0.3338738977361826,
          0.8474987895828211,
          -0.15929468102613292,
          -1.033874163891742,
          0.11245914817415548,
          1.2013649083828948,
          -0.08032131336615521,
          -0.22201011549721156,
          -1.2084888334018085,
          -0.21493399790060896,
          -0.20466369903620385,
          -0.2984999775794444,
          -0.25019235937108925,
          0.3450198611157199,
          0.9468821842289996,
          0.28499620950484544,
          -0.22951288513300672,
          -0.9150670334502675,
          -1.3146906394198596,
          -0.8005495622342115,
          1.2151885925773802,
          1.76875345361125,
          0.4970222247309471,
          0.8253458560453103,
          0.5353245751740605,
          0.4180994640953032,
          -0.2525008459369204,
          -0.046608988304811874,
          1.4027024387995224,
          0.5632188049973927,
          -0.005541876920708443,
          -1.2615411413483082,
          -0.408560159283737,
          0.21943364155423634,
          0.33488994640451064,
          -1.0930239610404702,
          -0.9334993821685853,
          0.6430956771637931,
          0.016547869783925355,
          0.5443752007211239,
          2.5067788932534385,
          0.8582330717333075,
          0.5891751200644763
        ],
        [
          0.3547685050675064,
          -1.7626078364888615,
          0.7554338039083635,
          -1.52613424666688,
          1.5122379628055889,
          1.2530368473991544,
          -0.5597432363919382,
          0.8279307943906418,
          -0.47370179440793414,
          -0.7046904502965341,
          -1.3624113782737097,
          0.3682552970323615,
          0.6186563094692522,
          0.10144462638170727,
          -0.07512043353682435,
          0.8944796606085478,
          -1.8215126640459671,
          0.37640004930475984,
          -1.3725487026225278,
          -0.5628468307230163,
          -0.3147162419800136,
          -0.28665358159216303,
          -0.9239540041044634,
          -1.203224634279603,
          1.0570312837233558,
          1.1066277683277885,
          -2.1113205783500155,
          -0.4076845564016089,
          0.3559792342597265,
          0.2782722710701732,
          -1.570992047788267,
          -0.8712775567261628,
          -0.3275282753142407,
          -1.2875384471080131,
          -0.4631759952799287,
          -0.5925885577393346,
          1.3972403960946815,
          0.06012583607625022,
          -1.0870661170232734,
          0.5879755820688564,
          0.28340318916087676,
          0.06667223177407157,
          -0.6047457967614773,
          1.4117170744237855,
          0.598190191541302,
          -0.41291400823444513,
          1.5753963483073792,
          -0.15544075453099007,
          -1.0144895135311809,
          -0.6910768772483273,
          1.0294192724110331,
          -0.21520563178863344,
          -0.5629231907507367,
          -1.0128816134900915,
          -0.5606015933103282,
          -0.7428930318129715,
          0.309847610666624,
          -0.29099557063127457,
          -0.4215008449049673,
          0.15546023347903087
        ],
        [
          -1.0376958580742066,
          -1.0934511516014596,
          -1.6882119545379173,
          0.5975231609849989,
          0.09074568473001648,
          1.6014626197914508,
          -0.2896454131567491,
          -0.836344555617674,
          0.5245198301757488,
          -0.6097459450726935,
          0.6104266882041618,
          2.6480238643521363,
          -1.0825360568264906,
          1.0170375978445048,
          -0.27539384106545034,
          -0.9721927567254874,
          0.5184756772272562,
          -0.6151996476727634,
          -1.5447839778462011,
          -0.8969009699661514,
          0.4271049065774207,
          -2.051225838614384,
          -0.06124949611629699,
          -0.4909056328381002,
          -1.0886248985142986,
          -0.7794585684043944,
          -0.4755807372158976,
          2.5577405103024393,
          0.4089387118889401,
          1.0949985094830335,
          -0.8310342082786181,
          -1.1783558306221398,
          1.1630624708219088,
          0.282262779409001,
          -1.1353822670181006,
          -1.0125805255810134,
          0.20417393297453157,
          -0.3576937745593904,
          1.7583662266272202,
          -2.1193402371734793,
          0.9422852687105956,
          0.25672263792902816,
          1.1054581596562254,
          1.2360737581023689,
          0.12229664165799643,
          -0.2770923596963902,
          -0.007595494658040944,
          -0.4620727428651435,
          -0.10848295818170915,
          0.9939939611207699,
          -0.05642176235812783,
          0.3538421628148143,
          0.4767363397572174,
          0.7098122709120784,
          0.9157880710319851,
          -1.2069101780630185,
          1.1834018902105978,
          -0.9777122562397773,
          -1.3505960484491162,
          0.12534170048649654
        ],
        [
          -0.5512914369516194,
          0.3391197397925579,
          0.296273942907382,
          0.5248322741108247,
          -0.04272234737700361,
          -0.42118155618685976,
          0.7263037947437032,
          0.4532090113757174,
          0.3092098108482794,
          -0.1361542160811872,
          -0.6664423053015583,
          0.11885357833223889,
          -1.3505003331276657,
          1.1610710607929455,
          0.10401311445496368,
          -1.633125720332577,
          -0.984823609091896,
          1.1410155846452181,
          0.9383206556270709,
          0.42103250207440374,
          0.024985908654121473,
          0.03568450451072315,
          0.05180700434483023,
          2.1983872231936514,
          -0.5968432540401261,
          -0.6928639215733762,
          -0.19952552443215507,
          -0.6020294979182869,
          1.3841418416998246,
          -0.07188302513530691,
          -0.552518702565115,
          -1.1775650028613216,
          -1.5727116145589697,
          0.34352412828438794,
          -1.6377610644010205,
          -1.4763566359232727,
          1.1791489071067889,
          -1.0426334267360804,
          0.42473327356219476,
          1.1004522259966918,
          -1.1023926939486832,
          -1.0786332763171027,
          -0.23441357943868366,
          -2.1985675074069753,
          -0.11614308485019668,
          -0.4587888011706195,
          -1.2643465501705908,
          -0.6377298243490662,
          -0.2526784586274328,
          -2.2589864682107534,
          -0.4044272143969624,
          0.9636342049092813,
          -1.5015147375113487,
          -1.2815047818591978,
          -0.769788394734064,
          0.15408005193994465,
          -1.4844629801673352,
          0.16655609506952213,
          1.424969166146314,
          -1.6792405733094957
        ],
        [
          -0.002941288888957053,
          0.2892977086803142,
          1.088446979563883,
          -0.3564765158833322,
          -0.03813100096785647,
          -1.0514024913593067,
          -1.040496917248023,
          1.5353841178881795,
          0.6178800658360937,
          0.075521742156907,
          0.5038118219627933,
          -0.34172295031747807,
          -0.4049794663863774,
          0.05202739825922179,
          -1.1180703243527252,
          -0.8278017985421057,
          0.0022275160054286997,
          0.9908734375732812,
          -0.08255928232424449,
          -1.9654011733295493,
          0.7109850937719858,
          -0.3114630393318293,
          -1.6630838477677865,
          1.3525460912301404,
          0.008957413700123536,
          0.035268338097792576,
          -0.30566989814206136,
          1.0133631979090403,
          -1.66694459468429,
          -0.1227801515298295,
          0.19795526937559854,
          0.16533694730805432,
          -0.3354489965197807,
          -0.8515035516887229,
          0.2097175294304525,
          0.7329393004829862,
          -0.4627922996105391,
          -0.5110523901980673,
          0.6593606275470362,
          -1.3698968662904796,
          -0.02228632168684114,
          -0.024897657487634124,
          0.7560933097753774,
          -0.19064183198625312,
          -0.4646073714463753,
          -0.9746100403433029,
          -0.7374943435915505,
          0.4537381096235582,
          1.575580465234575,
          0.28161144278439104,
          -1.1181894137901898,
          -0.15476235526758905,
          0.022581136088364158,
          -0.1560201429101631,
          1.2645402399308834,
          -0.37488827077501913,
          -0.10857470470019712,
          0.3533488006392492,
          -0.8699357186042197,
          0.5576122472472692
        ],
        [
          1.774457334018257,
          -0.35531245944714723,
          0.3166910974061566,
          -1.1480798979129074,
          0.31148586262217043,
          -1.0254780279104028,
          -2.0163443080944696,
          1.5335177916407772,
          0.9800702660981051,
          -0.745683267479375,
          0.3358509392684921,
          0.6570680091295177,
          2.616734068327951,
          1.0166694479598342,
          1.0998731023885655,
          -0.19074133264957457,
          0.5130927805133713,
          0.08464180297653341,
          -0.8898046747867586,
          -0.4973657153681542,
          -0.6102621404584376,
          -0.3830728971151218,
          -1.1455257473856757,
          -0.48754394066504475,
          0.031063393963090068,
          0.17882955661153138,
          -1.0984656449000878,
          1.0273793629063526,
          0.30461607905972765,
          -0.03463446754726334,
          1.3146194481833524,
          1.9013877505827659,
          -0.010655185118790739,
          -0.9792724798209137,
          0.6584313224165848,
          1.4163477097306183,
          -0.2866599473142363,
          -0.006891965488145659,
          0.05522487803338065,
          -1.085761325323419,
          0.27463610934541,
          2.202893011553152,
          0.016778382320636286,
          -0.6901105535388021,
          -0.419017452515851,
          -0.8973493449212756,
          -0.8849215893075004,
          0.3896698983087438,
          1.0075252234229775,
          -1.224555965802966,
          2.0064938248466784,
          -0.7122840940244636,
          0.6140753804916437,
          -0.7657704110669258,
          0.5720630173122793,
          0.10448844755137801,
          -2.03609569782973,
          0.5946724123212265,
          -1.34871418108426,
          0.6930299902011975
        ],
        [
          1.2608892553039002,
          0.13271210518493756,
          0.4505546910368458,
          -0.7353811166244079,
          0.4727009994957239,
          -0.46689389387062513,
          0.32111556141342484,
          0.6005536974298984,
          1.4830077469208396,
          0.4862066949755583,
          -0.33254102193608787,
          -1.2102544706034009,
          -0.3324467738642977,
          -0.5503801497987352,
          0.06992931092052485,
          -1.5584883722873006,
          -0.6132832304286334,
          -0.2713296943185513,
          1.126193564707863,
          -1.611192594495784,
          0.6193767442419825,
          0.5120735941526683,
          0.9343196892564282,
          -2.0023901706413825,
          -0.40409064870809874,
          -1.0598883880029155,
          0.5315600545822521,
          0.6594764835780513,
          0.22711862021423476,
          -1.5003454998013235,
          -0.44606463686154024,
          1.0183349287146326,
          -0.14199637826423955,
          -1.3786476849114062,
          -0.013216277836669843,
          0.08484680782065133,
          0.17789437395276242,
          0.6613962747982876,
          -0.0894331767903989,
          -0.1321791993199696,
          0.2561525187142434,
          1.7155839167429494,
          -0.20028086487739447,
          -1.1059594456006372,
          -0.23474198163764617,
          1.1481601495318723,
          0.005715944986515025,
          0.5316419685060741,
          0.7828763245880932,
          0.7928553605098989,
          0.3630206120965714,
          -0.0811134910962159,
          -1.167768835149519,
          0.17013132791029867,
          0.736087237072611,
          0.40740904229493097,
          -0.7620351625684951,
          -0.11202986481518434,
          -0.1509259463925921,
          -1.30620164863615
        ],
        [
          0.3054561527038426,
          -0.33853896768377145,
          0.8128108269382077,
          1.8668576536512844,
          0.3677973958233719,
          1.43632847299932,
          0.6355533723183001,
          -0.6915420985094418,
          0.5525073090511637,
          -0.19899298227162232,
          2.098455118156351,
          -0.1010429937139115,
          -0.2729773475772957,
          -0.15278532332858538,
          -0.15348206271717948,
          -0.27517840941554217,
          -0.2506823328852828,
          -1.0253170977509132,
          -0.0810400111615188,
          0.6371213143135848,
          -0.580801961642553,
          -0.3759741154102905,
          0.07961837810893031,
          2.07068944431843,
          -0.27428247751098367,
          -0.3696448319155846,
          0.20966380894032238,
          -1.0084689208999906,
          0.1536399490278844,
          1.2558754613155763,
          -0.5385374746397726,
          0.614926321115373,
          -0.24509771710584072,
          0.4592192893435659,
          -0.080206404833482,
          -0.069511049133249,
          -1.203367542110731,
          1.9283759120524657,
          2.0053328939080632,
          -0.647180013723719,
          -0.04220799198448632,
          0.5978464374422029,
          0.26919292048910903,
          -0.7822567331373574,
          -1.0424386721059127,
          -0.4765573286553298,
          1.7809062743234907,
          0.22946288026804074,
          -0.75939091691915,
          0.3908602063284532,
          -0.5821319092553844,
          1.9412453995681929,
          0.01481392495683233,
          1.474422646130153,
          0.7575553873426895,
          0.38937334079331226,
          0.37339312956409715,
          -0.008558719081795127,
          -0.7925107913116065,
          -0.4709835307190198
        ],
        [
          0.6991496153232725,
          -0.4940003545483074,
          0.9913796964175505,
          0.16754753706031303,
          -0.33117764631286534,
          -0.34212002747326975,
          -2.2552269780443988,
          1.1035650804938908,
          -0.38924370875770575,
          0.5634079778798053,
          -0.6471372987854793,
          -0.15178275257164864,
          -0.6307555422759832,
          -0.16209476425226016,
          0.7445110485653138,
          -0.985003219883721,
          -1.3211204296228265,
          -2.286736803571531,
          0.2629856127159495,
          -0.5981426803193601,
          0.02515506035135931,
          -0.1208665531130149,
          1.2081865825297975,
          1.447378412073542,
          -0.8557832484462622,
          0.2271978851057079,
          -0.0010004391529670673,
          -0.3632741246653383,
          -0.456365372741021,
          0.01433100624551213,
          -0.8216838545228411,
          -0.7434800768795837,
          -0.9679364862835191,
          -0.2728781939654353,
          -0.6339818341354597,
          1.0539093993428903,
          -0.0773950401320083,
          -1.6875416165677775,
          -1.6372439183313345,
          0.08947333833466055,
          0.3565619166927014,
          -0.4405613820377013,
          -0.027928394527078862,
          -0.36322584418535075,
          -0.15452434590272474,
          -1.3978301441917427,
          -0.051189821235077496,
          -0.31734218035384154,
          -1.2663477307584274,
          0.4758829512644038,
          0.34307036432433075,
          1.424079863090215,
          0.1284479043300851,
          -0.16670336922156193,
          -0.03447274111862688,
          0.5988168656612578,
          -1.1124187789802833,
          2.1127978838652197,
          0.4025544935813571,
          -1.5853060864324011
        ],
        [
          -0.9472784216264989,
          -0.321616190989351,
          -1.2925843266256292,
          -1.9308772768880278,
          0.05953163179872064,
          0.4694611627333768,
          0.15753618210169415,
          0.3457534236476524,
          -1.6400211358151975,
          0.6815894961868487,
          -0.015330372633956028,
          1.3560498323069954,
          1.1134273953242564,
          0.6478767830916868,
          -1.4182517615476042,
          -0.5217405594187442,
          0.38146183566305397,
          -1.1987314754656033,
          2.7152621762169478,
          -0.28249800918341045,
          0.5746605058220519,
          -0.11599796011236448,
          -0.31615144940451456,
          0.8293217999451608,
          0.4507346384912859,
          -0.7204560852128515,
          0.5908781083679119,
          -0.7289107929092858,
          0.7861661966304339,
          0.5668725699815235,
          -0.7577790557562949,
          -2.1283601606156566,
          1.061606886163053,
          -0.09466204479500166,
          -0.7237763114971888,
          0.513411703843741,
          -0.7768202785139637,
          0.14611062243355313,
          -0.7597324920290836,
          1.2595475655633246,
          -0.29790787305343247,
          1.1312364974273106,
          0.1451302839685857,
          1.936001110831121,
          -0.0032674650223035156,
          -0.5501386881526061,
          0.679328745908645,
          -0.08242318876650187,
          -0.44984414677277706,
          0.7555211399671016,
          1.5776952518623706,
          0.8706449762258831,
          -0.6471023086908401,
          -0.8494991337276429,
          2.644373997822819,
          -0.9990772144885609,
          -1.671053791539641,
          0.5154211225662051,
          -2.0682795581395537,
          -0.06429544539471828
        ],
        [
          0.6921609438014779,
          -1.555804313886492,
          0.5372877673123564,
          -0.23993212272625047,
          -1.1363401586518154,
          -1.7178436283873777,
          -0.2631999669733932,
          -0.15511846476488803,
          -0.40742342839934015,
          0.5611880311283188,
          -0.4983077910141013,
          1.0227614743757156,
          1.7901242652534706,
          -0.02510606954105039,
          0.018252688357344334,
          -0.016171289737418403,
          1.3232219210135663,
          1.0328020273899523,
          -0.822668782605598,
          0.4576745580390919,
          -0.927402184178994,
          1.227647927688812,
          0.46610469404494004,
          0.9318964639641778,
          2.0599078054812994,
          -0.4543645372360345,
          1.2099165236297245,
          -0.5194724782847788,
          2.571436891326433,
          -0.9679620324092949,
          -1.4568080464111943,
          0.3642521119643419,
          -0.9888049650334038,
          1.5466855690936225,
          -0.5791499004038831,
          -1.083090193646049,
          -0.043845945412492426,
          0.6603716949758465,
          -0.7266745276922665,
          -0.32617619144257465,
          2.858090133063107,
          1.5658423356998001,
          -0.07492332474801058,
          1.505646161111843,
          0.4588780986571075,
          1.5637884696810251,
          -0.6772881066481734,
          0.544233068714689,
          0.6276091276229036,
          -1.4880777565925765,
          0.2807084176998883,
          0.18982199780034445,
          0.78238962274379,
          -0.39761723806445315,
          0.19803954123526654,
          0.4422463954488034,
          -1.5677538124044421,
          0.6813696650746758,
          -0.0025984432809671733,
          0.8286664279493827
        ],
        [
          -1.0179460693530775,
          0.027176472003745917,
          0.16510006870000682,
          -0.4765193187335578,
          0.32929191362664917,
          0.5832392878095958,
          -1.0313619700987906,
          0.6560277060676009,
          2.2155975605370983,
          0.4836157004858483,
          0.38960483022204917,
          0.8826278665392653,
          -0.9749418055459165,
          -1.0257158406372766,
          0.18826581720756835,
          0.26780813612854504,
          -0.3300175782034614,
          -1.2668445167192195,
          3.3960777864389726,
          1.0845700212146943,
          -1.475955969900666,
          0.15777109093071884,
          1.6458839085537693,
          0.915440931779356,
          0.7740230025216419,
          -1.2576282733238184,
          -1.3032349419784695,
          -1.6248502385344274,
          -0.9155277527840542,
          0.017854518896889073,
          -0.6408315512940779,
          -0.621981058834909,
          -0.3989303326326757,
          0.00037222062319414856,
          -0.6938454876302744,
          -0.41498317775544014,
          -1.9042622269515814,
          -0.16842902629326856,
          -1.0301578418796504,
          -0.5888226192684345,
          0.9828220108249661,
          -0.46392128263327054,
          0.015683078402746093,
          -0.15158578631369865,
          0.32573052163835103,
          -0.4424347887389193,
          1.3716835630499185,
          0.09751825467408856,
          0.05145631264806174,
          0.3946386368206015,
          -0.1126779627579572,
          -0.9592810918527123,
          -1.4265668109914031,
          -1.41853205635438,
          1.5457420608667976,
          0.1785279798336891,
          0.8789736655390396,
          -0.11185496894595583,
          -0.0036104348537817255,
          0.44362920292863495
        ],
        [
          -1.276366251991896,
          -0.046213660661451834,
          0.4434339191812566,
          0.6087947205827348,
          -0.5219641033862558,
          -0.508540013931968,
          0.10890935068053852,
          0.20709782123047368,
          0.37449063808734784,
          1.2232800097008196,
          -0.4510126684891409,
          0.9305885936648618,
          -0.29370261247457324,
          0.4627396250940643,
          1.3291670199534193,
          0.4367774482614299,
          1.315508381924023,
          0.03452074834316744,
          0.056653178929059744,
          0.1837135729751425,
          -0.14200183383345358,
          0.5546317683183607,
          0.8576516804085997,
          -0.7369300727946828,
          -1.6255388053491169,
          0.022161026634242045,
          0.0190460848646777,
          0.58288970551965,
          -0.5877948605527866,
          0.26962019110802216,
          0.2376814768104998,
          -0.8800737350022201,
          1.5809146730122006,
          -1.981618225888133,
          0.910067321771623,
          -0.1749789891768967,
          0.9992882349608107,
          0.24605015584634296,
          -0.8795180593290906,
          -1.69372664629262,
          -0.3496885216954663,
          -0.33898828800009,
          -0.27652415549981146,
          0.28551677775739587,
          0.6647252120912877,
          1.3822368275755283,
          -0.8885662987719926,
          -0.5557653057132822,
          0.37844269544719034,
          -1.5839100509390114,
          0.39765628052429347,
          -1.3943423558402233,
          -0.08739066453384613,
          0.09821874914934495,
          0.4830586183804558,
          -0.4139861569333603,
          0.2002487846674555,
          -0.43055588989513466,
          -1.1948500416179801,
          0.6885858094426942
        ],
        [
          1.8605403182888405,
          1.7369667488151224,
          2.3210905778691604,
          -1.2093287941453703,
          0.12908384206600518,
          0.31639901752161464,
          1.8757649561330427,
          0.18403708848625439,
          -0.8051150251233266,
          0.6253508006390294,
          -0.7979034758711762,
          -1.5493419166240818,
          -1.1522987670097096,
          0.15984294330357662,
          -1.861854436325888,
          1.189204815125146,
          0.3842304799008138,
          0.1629053122443241,
          1.5160039552118791,
          -0.45902074505028634,
          0.8387519994919442,
          1.7035270389779584,
          -0.29125348252857414,
          -0.9312205020728351,
          0.1601768227439132,
          -0.1378451347621697,
          0.8035622975489667,
          -0.4033798852433946,
          0.49931729304348604,
          0.6706136444294402,
          -0.9716218946325893,
          1.1201563427254826,
          0.2903962172983916,
          0.310152510235899,
          0.14831967787386643,
          2.268845487956611,
          -0.9475597645405719,
          -0.8264658195565671,
          0.8915386701266556,
          -0.24582439243239276,
          0.13065117220111835,
          -0.026361828923706587,
          -1.2976118258177711,
          0.10549643826115887,
          -0.09291306559994825,
          0.9785733889832682,
          -0.294642638873628,
          0.03778290607409836,
          -0.797234306914256,
          -0.8854749040119717,
          1.4070972790275398,
          -1.389859985039072,
          0.46428369010897225,
          -1.6029730931424873,
          -0.853241905227174,
          -0.0021057308953014325,
          -0.1377261252315239,
          -1.472165974437273,
          -0.19442056755776493,
          0.6368598338730178
        ],
        [
          0.060820592082296586,
          -0.13721458123195954,
          0.1892290703799599,
          1.1799561434442658,
          0.3381913694376428,
          -0.6049470905114296,
          -1.0540208768696369,
          0.7415231833554441,
          1.3214357215933854,
          -0.11763262780766233,
          1.2109262053171137,
          0.34862430373172126,
          -1.0194181406955003,
          1.0954154193652903,
          0.26815658417289373,
          0.3136323707124849,
          -0.07034157101224371,
          1.1612025512659172,
          1.4665153754513995,
          1.821011545473496,
          -0.2067483931191906,
          -0.029984490039844092,
          0.24437789085770634,
          -1.5662991668904298,
          2.321544336151356,
          0.30872414799356834,
          -2.5208423855544826,
          0.25317157309813954,
          0.7446186877881291,
          0.3324456175915051,
          1.2852213858431134,
          0.6807476597113132,
          -0.5820148709376253,
          0.10962199137445088,
          -0.4777992392756674,
          2.00255608751702,
          -1.011059149922265,
          -1.1319487278041886,
          0.22448035999968924,
          0.7992771573501948,
          -0.7299890152383911,
          -1.0140641045949088,
          -0.5496824716919155,
          -0.44726944033627797,
          -0.05583177892861589,
          -2.5469442459954883,
          1.297166075161753,
          -0.3247581901291326,
          -0.5834374902746685,
          0.14784160320693446,
          -0.3854606555713388,
          0.2896351764100112,
          -0.5262062175022011,
          -0.24960251291237825,
          -0.5915976782616522,
          -0.15267757347090707,
          1.113786938727959,
          0.7510739288794531,
          -0.7656187835447932,
          0.40612825256537394
        ],
        [
          0.11759589849476053,
          0.7387014273145227,
          0.2555305359617717,
          0.729852889025554,
          0.46207380922728725,
          -1.421433592598599,
          0.5779955958908674,
          0.016373294058654134,
          2.1082135020501327,
          -0.07262897671619577,
          -0.4343061608549905,
          -1.4516366996078038,
          0.03270693714589344,
          1.191549858718236,
          0.12978474260537123,
          0.4713673304612602,
          0.7538940075264323,
          0.12150038253242083,
          0.7471798089055108,
          0.7566978914945771,
          1.0709968780816568,
          0.6124567719121864,
          -0.39807811405970667,
          -0.7526383109600718,
          -0.8049140389968249,
          1.2631293515786535,
          -0.7722805800149318,
          -0.42592558273287673,
          -0.7066617690565388,
          0.5195426886162656,
          1.577099082008248,
          -0.449752703486912,
          -1.3434329947435235,
          0.876886637742914,
