{
  "network": [
    {
      "weights": [
        [
          -0.6466378010137408,
          1.6141124244873963,
          0.38881435637379086,
          1.5859452300664647,
          1.029939075005787,
          -0.7313816284081387,
          -0.6432534128791036,
          0.5756512222886424,
          0.3510106202753332,
          0.9234853702384902
        ],
        [
          0.37156396015621956,
          -0.57992486735334,
          -0.5627699734796744,
          0.7184448363958068,
          -0.6094029184311974,
          -1.2477582667054452,
          0.684795951478114,
          0.045227625076063746,
          -0.12911597849642764,
          -0.10976385770570588
        ],
        [
          -0.40689771034438005,
          -1.2204002580371698,
          -2.103356568872973,
          -0.6042787365286556,
          -0.7127499948200722,
          -0.6999545392393234,
          0.5414458962278735,
          -0.10722620878350625,
          -1.2546546907634777,
          0.2862177934402338
        ],
        [
          1.3621316342906766,
          1.4853560830536803,
          -1.0430935042564047,
          -0.7074405167200846,
          1.172231643723846,
          0.3706368605950789,
          -0.272216482781396,
          -0.38025903816720863,
          1.441112547332217,
          -1.6361414622376065
        ],
        [
          -1.1091748162344197,
          1.4951813394817872,
          0.5892009571727591,
          1.1353715449653339,
          0.9908876638959568,
          -0.6592411427632803,
          1.7013686550389577,
          -0.02515935622174211,
          -0.6376721422974724,
          0.2541543133351537
        ],
        [
          0.028205604960946245,
          1.3258770944641498,
          -0.2178808194075001,
          2.2938087960002127,
          -0.02704558517815117,
          -1.4997788372589953,
          -0.16284331709245162,
          -1.3130929501678887,
          0.62482982352134,
          -0.9068495098147827
        ],
        [
          0.6476245051141392,
          -0.25213772442280175,
          -0.005486596292552131,
          -0.8398469236892543,
          -1.1592725718172867,
          0.07913046139091846,
          1.4323352644277274,
          -0.0635266765818106,
          0.23405269436946974,
          0.10471327543101559
        ],
        [
          1.3544917506309757,
          -1.0046439046037772,
          0.49658014440847104,
          0.43782561763585676,
          0.7246118591335661,
          -0.49737306018037547,
          1.6644327800731882,
          -0.6748131447307733,
          1.761732438630471,
          0.524587565269043
        ],
        [
          0.8190591670921825,
          0.6269152922753161,
          0.14923906114744476,
          1.8557873355440058,
          -1.0132351731558997,
          -0.944530129381177,
          -0.9670885938462043,
          0.539189449393648,
          -0.9201268955924455,
          0.557690267819152
        ],
        [
          -0.10884910537579268,
          1.0006461550768941,
          1.038448976807167,
          -0.02270237616978148,
          2.4635859970362177,
          -0.46580548970982066,
          -1.4889379885613148,
          -0.14804662275601121,
          -0.04427595434512337,
          -0.09243282678319686
        ],
        [
          -0.43690431080531644,
          1.947073477925577,
          2.6029374642457244,
          0.8635054141993661,
          1.3360361855012939,
          0.5930305386313923,
          -0.20748715067091286,
          1.4945160220751428,
          0.8951141040284203,
          0.21827118960875372
        ],
        [
          0.7580346426003802,
          -0.507344264431498,
          -0.5487546694730743,
          0.544326046437347,
          0.7439313579777601,
          -0.2891548826065894,
          0.060485750111435414,
          0.6966347094823303,
          -0.6527912949131672,
          -0.4342301425705581
        ],
        [
          0.4253035896878062,
          0.49608112173410085,
          0.5143053897193778,
          2.297861586034063,
          -0.03738451666973505,
          -0.33790887240498113,
          0.2901068152335192,
          1.3497741603524536,
          -0.6038579433828605,
          -0.43254405827031245
        ],
        [
          -0.12206985327293715,
          1.8600600704572403,
          1.2693160077358154,
          -1.302108544939048,
          0.16084532677183047,
          -0.24313014986022424,
          1.8035114992141423,
          -0.7691452610701605,
          0.28244021006212666,
          -1.0748234073218161
        ],
        [
          1.1579837741186159,
          -1.1023991518953116,
          -1.065272876741599,
          -1.2994868821835546,
          0.5429993600836123,
          0.40972203063044016,
          0.9787829793508777,
          -0.10867341333352651,
          -0.6445062866930275,
          -0.5061596713595236
        ],
        [
          0.491787891639477,
          0.4027792228644645,
          -0.17052347562931536,
          -1.048428894271424,
          2.734654854796861,
          -0.8088414824456177,
          0.6972976448637261,
          -0.3441600597839834,
          2.5242220924646834,
          0.0645453933152885
        ],
        [
          0.45090870551345313,
          -1.3489013998321848,
          -1.5936057579458676,
          -0.02616394240738587,
          0.6955827092522396,
          -0.7513330119804412,
          -1.3316482482345646,
          0.8475355946408019,
          1.0154944394715584,
          0.3739864932491186
        ],
        [
          -1.4460656838680748,
          -0.14870236222108463,
          -0.8532658229864659,
          -0.40722618318096054,
          1.199995279395759,
          0.20697825779386067,
          -1.2434699233604787,
          -1.3230267723969038,
          0.25094786931980395,
          2.2436119657681295
        ],
        [
          0.35831318234729187,
          -1.2351128150380668,
          -0.4333000527866782,
          0.3306263737836824,
          -1.649335594260442,
          -0.5897350987028104,
          -0.6497476925012338,
          0.02815452098688197,
          0.04431364899660029,
          0.11164119841405173
        ],
        [
          -0.9672640470591255,
          -0.6799195376224989,
          -0.39081918188602527,
          0.6683933753212972,
          -3.077143153299197,
          0.15564231041309975,
          0.09287303166814294,
          0.22115167047038367,
          -0.7514107353224135,
          1.786340778267421
        ],
        [
          0.14573673730287473,
          0.7850823546710506,
          1.1593322752041082,
          -1.4052346862744047,
          -0.522977185459213,
          0.43887990714468306,
          -3.1120342178673517,
          -0.4848399165325606,
          0.7798928422494665,
          0.9633892595075936
        ],
        [
          -1.4712672734355285,
          -0.28284067301689836,
          1.5822593324607155,
          0.012739447440377163,
          1.1522076892511528,
          -1.7509321108502756,
          0.23078909173760484,
          0.9216052956926767,
          -0.8824050545075985,
          1.194596556025764
        ],
        [
          -1.3702225811259132,
          -0.01789171716627188,
          0.3058903619654372,
          -1.5695054216509452,
          1.028543263087581,
          1.0749395671202755,
          -0.36732001894241606,
          0.994687160403751,
          0.42488672582490505,
          -1.5608603139635435
        ],
        [
          0.920773897306036,
          -0.04944605474283396,
          0.5538370035734574,
          -0.041831692570895966,
          0.539560142522034,
          0.061014912570410994,
          1.5926781995484818,
          -0.12499157296640119,
          1.7039711328314167,
          -0.5994770782542914
        ],
        [
          0.7598990002339129,
          -0.17560059716909948,
          -1.2017072150106887,
          -0.4354773651834921,
          1.6375874347109431,
          -1.111660688098836,
          -1.1831763879407282,
          -1.3139342620027612,
          0.16732315441497958,
          0.454170754038531
        ],
        [
          0.2571114988995211,
          -0.5942045487311632,
          -0.7004641172600218,
          0.6705335839373217,
          -2.023350956631745,
          1.1991744143319314,
          0.5367288891163947,
          0.987822771288878,
          0.3102539677368252,
          -1.3729980057092848
        ],
        [
          0.058275462585764506,
          -0.46354966943387316,
          -0.23232686234869107,
          -0.4290674362094733,
          -0.8086045074058017,
          0.018683257338392864,
          -0.4148622203164509,
          2.030314042673054,
          0.16737220254181767,
          -0.6521795398706105
        ],
        [
          -0.8365827937855632,
          1.6804088350703539,
          -0.10445509985746328,
          -1.7141587102026368,
          -0.26743750744322875,
          -0.8594884960279723,
          -0.44971727027216896,
          -0.03371916001238654,
          -0.056963590130405264,
          -0.13332080005191074
        ],
        [
          1.342548576305169,
          0.13226983568885892,
          1.3402635468437691,
          -0.11441705993688157,
          -0.44837698213943117,
          0.9483870668538701,
          -2.725489655439823,
          -0.7140170551401044,
          -0.7764185171393458,
          -0.7959247510306976
        ],
        [
          0.12042034264734819,
          -0.1806335161572582,
          0.020830088540385844,
          0.7041671894341366,
          1.0001994940568848,
          2.60280523240314,
          0.8152899118172423,
          -0.5908743111313342,
          -0.12197674574184156,
          1.3939568234624193
        ]
      ],
      "bias": [
        [
          0.2584909103721372
        ],
        [
          -1.7099034157428072
        ],
        [
          -1.2721209018436481
        ],
        [
          2.8262723401155454
        ],
        [
          2.1429858217629376
        ],
        [
          1.6262671632028147
        ],
        [
          1.2465103553951935
        ],
        [
          0.036665350049415193
        ],
        [
          2.6530421829215736
        ],
        [
          1.235272212654219
        ],
        [
          1.718110034461246
        ],
        [
          1.0446099701945284
        ],
        [
          3.423518153285427
        ],
        [
          2.3146062506640854
        ],
        [
          -1.3112895977529002
        ],
        [
          1.018713272798482
        ],
        [
          -0.023897392224838606
        ],
        [
          0.05457285775754178
        ],
        [
          -2.2715028337637095
        ],
        [
          -1.9116783716447792
        ],
        [
          -2.4292430233133393
        ],
        [
          -0.035884651570663825
        ],
        [
          -2.8282151729949323
        ],
        [
          -0.8043742106006478
        ],
        [
          -1.2267232986159797
        ],
        [
          1.3317707970236363
        ],
        [
          -1.0998353038400757
        ],
        [
          1.5379470014217151
        ],
        [
          -2.6251932104072324
        ],
        [
          1.409459039362257
        ]
      ]
    },
    {
      "activation": "tanh",
      "activation_prime": "tanh_prime"
    },
    {
      "weights": [
        [
          1.0364259908317697,
          0.8228221699678924,
          0.4048541085408652,
          -0.8692814387522193,
          0.7959612387359952,
          -0.494088210000973,
          -0.34571679405812533,
          -0.09056205744672835,
          0.9493931574782594,
          -0.3705943546308536,
          0.980275167048085,
          -0.026945841643651675,
          -0.1963966339214661,
          -0.10701788211190257,
          0.4243447812510363,
          2.706609589831365,
          0.08320228740947737,
          0.7035987610515914,
          -0.8181339288340684,
          1.232039073370628,
          1.1589244242308836,
          -0.07760433204027112,
          -0.7707527165937117,
          -1.1240517901757294,
          -0.6583400209992933,
          -1.6093969029207897,
          1.3443001539216624,
          -1.7790444217414652,
          1.2848865222009427,
          -1.975727187781354
        ],
        [
          0.039557743665834276,
          1.0730736675457677,
          -0.8804308989308386,
          1.0068971293298643,
          1.640136607161336,
          2.657041227565335,
          -0.21031152460214067,
          -2.6066184855243177,
          1.0980193208386015,
          0.6456041534925391,
          0.528140923197995,
          -0.9742362926499492,
          -0.0001678283120595395,
          0.7984317875889632,
          -0.6811865526430455,
          -0.26399471604435126,
          0.7804992310053834,
          -1.4260804717888615,
          1.0981069539686477,
          0.7011863842167158,
          1.0534086348626148,
          0.09830233273431055,
          0.6216935458167157,
          0.4284813318098049,
          -1.12700695579425,
          -0.7448169158280544,
          -0.9684460790759183,
          0.7856498884295742,
          -0.06702781508005802,
          -0.7567662790402698
        ],
        [
          -0.6694812165740736,
          1.385986384283574,
          -0.7689475561689283,
          1.5393470050925084,
          -1.201912250911122,
          1.3586375515291385,
          -2.1601329002831102,
          -0.2627746309651742,
          1.7778097163102036,
          0.53376542024866,
          -0.3413089904821867,
          -1.1736025650121134,
          -1.8361784969454578,
          -1.6549720506133232,
          0.9180215268087957,
          1.1305936411687154,
          -0.456863156236037,
          -0.6392898993576562,
          -0.031893274769433606,
          -1.4456544184335993,
          2.7940741353301237,
          -0.2582426915028075,
          -0.03546796337805728,
          -0.009372028011515937,
          -0.6882346969932611,
          1.1900230751159797,
          -1.1587806816829704,
          0.44454008819656116,
          0.5128952167986456,
          -0.6578640543894264
        ],
        [
          1.6532853178430424,
          1.467077190051785,
          -1.2928166916222188,
          0.5422393864998496,
          2.1132997907984015,
          0.3033262626344036,
          0.1762587428282097,
          0.3689557202356254,
          2.1800822766094314,
          -1.9504178722405234,
          -0.2337686854463874,
          -0.12381037860805241,
          0.01712705649132857,
          -1.8160653933750535,
          0.25356772695661883,
          -0.47233568797786213,
          -0.8546403146134791,
          -1.0312369631705534,
          -1.8382119433956723,
          -1.085762929020169,
          -2.486686048493521,
          0.0877724346980379,
          0.3317017952204765,
          -0.54899097068089,
          1.5569076262537715,
          -0.55734864455727,
          -0.29049951979194427,
          -0.5216632149528808,
          -1.7503932227155912,
          1.0745191071663016
        ],
        [
          0.29017022777633533,
          -0.118922680098075,
          -0.0051603217743853985,
          -1.0450267961939226,
          0.37587898500742556,
          -0.07493004809116881,
          0.42750984370692363,
          -1.1779127872361967,
          -0.43693929441481005,
          -0.808855161340942,
          -0.47007798735521805,
          0.08493135672347782,
          -0.0020528572223456666,
          1.8750669734322547,
          0.36833598555094843,
          0.13121509427797642,
          -1.0908133211894424,
          0.26443610591372757,
          1.5628023352438318,
          1.0674516258702658,
          0.9574171737177685,
          0.06749712220688876,
          -2.523705359083084,
          -0.6257394410848127,
          1.679244705664784,
          -0.6533146544070186,
          0.763204492474255,
          -1.2876561338493777,
          -0.009037192549764572,
          0.07520052684527184
        ],
        [
          -0.4551587575739003,
          0.10695987172455323,
          -1.3456803073602657,
          0.5511808869877609,
          -0.7737711747822726,
          -1.8976517193288853,
          -1.6153183437938978,
          -1.040743164337994,
          2.019119056021186,
          -0.7189412045453492,
          0.915554454010478,
          -0.7309074158870607,
          2.933170909266605,
          -0.3078846481483677,
          -1.344505643698546,
          -0.3241696646285117,
          -0.5769313827941608,
          -1.1830914669771113,
          -1.275945898800201,
          1.2107722588075516,
          -0.7801351032882383,
          -0.8922932132182965,
          0.5145307611428188,
          1.0982414067178545,
          -0.06602164288447446,
          0.07037478913131742,
          -0.13646136158799935,
          -0.8320133741590605,
          -0.217536315129144,
          1.3507335859497387
        ],
        [
          -0.938727039162689,
          -0.1662366723269948,
          0.6415717759172755,
          -0.13764203903995573,
          -2.993218005626459,
          -0.533233947537336,
          1.4974801156576654,
          0.6762364890393079,
          -0.4586671196619993,
          0.2968860647962548,
          0.6045439881553251,
          1.162566811179199,
          -1.4613476805825492,
          -1.445655741125678,
          1.4357416151073463,
          -0.48972656938938675,
          0.5778158589236063,
          0.4012961944969657,
          -1.176826331585531,
          -0.5689442623067943,
          1.1213027166648715,
          -0.1627949408642161,
          0.7522458396590317,
          -0.20526475958220317,
          -1.8720242130144467,
          0.8315313871442975,
          -1.1231761990031055,
          -1.9950668465942811,
          1.5230513465068087,
          -1.40475127735725
        ],
        [
          -0.989144343626785,
          -1.0800670483258075,
          -0.3570798606015258,
          -1.0794346392808518,
          0.27939498687672365,
          -0.6817670036390738,
          0.8807338185485948,
          -0.43011534959451136,
          0.13400176985711792,
          -0.7482892959463506,
          1.7047791855417571,
          0.10351946723285498,
          1.3019076756037415,
          -0.1211970863594018,
          -1.1967315709484847,
          -0.9100277641137228,
          -0.02705575747456559,
          0.8106584598561566,
          -0.18773073105452545,
          -0.2936777550665318,
          -0.23189294958046705,
          0.029154514832340907,
          0.2941741657908493,
          1.1982970287271195,
          0.6963067365381551,
          0.7423761233621866,
          -0.04385102129107663,
          0.6227096943989884,
          -0.5307571180919033,
          0.08332650415458724
        ],
        [
          1.1576501188641493,
          0.035167943025351166,
          0.08569189283754138,
          2.1383947188206283,
          0.4939547234881017,
          -0.4346394549901653,
          0.3185588318264766,
          -0.732117793527146,
          -1.127009263908513,
          -1.4209647517646107,
          0.3458853730695384,
          2.365431223820661,
          1.2497847055525921,
          1.65277199486579,
          -1.179391893363049,
          1.0002437470565002,
          0.19042360290286947,
          0.075032068799469,
          -0.06661166935134807,
          1.5140029679491354,
          -0.6202715653051437,
          -1.3937783280408278,
          -0.7866060812163856,
          0.14207903783327683,
          2.7518363991964825,
          0.3364308502829447,
          0.425049615085389,
          0.31980613432446653,
          -0.14518843993681196,
          0.5798740324811005
        ],
        [
          -0.24956602461049635,
          1.4096592429005543,
          1.8229836458804194,
          -0.6884190644471165,
          -1.0066603664935674,
          0.16260548678655376,
          -0.9138807274176773,
          -0.18008170991509517,
          1.5213464378795705,
          1.2833991711299546,
          -1.5958742507330028,
          -1.2060974651896517,
          0.6170751832950785,
          -1.086240336959968,
          -1.9910576373065534,
          0.019264256151261906,
          -0.43580714431472883,
          1.2760270043384956,
          0.1259087434517605,
          -0.05823669723068523,
          1.0753778794791156,
          -0.5013121879573946,
          -0.5289495385691488,
          0.09425171074338716,
          -0.18738827536595362,
          1.346311290926574,
          -1.3608491072484845,
          -0.4853415859193948,
          -1.6965687215379983,
          -1.604133718243306
        ],
        [
          0.24155367423764235,
          -0.4406522497392558,
          -1.344990516360128,
          -0.9864518901644915,
          -2.308874759508343,
          1.0766350422543722,
          -0.5060218516817416,
          -0.20579420814083113,
          0.03146098409288995,
          -1.684613413838862,
          1.0328231069025657,
          -0.5065223920706338,
          0.5793243436041746,
          -1.190952527252428,
          -0.3741819654054014,
          -0.3836159562137514,
          -1.9677515245449935,
          -1.0328390224012294,
          2.1939976320341303,
          1.4402758914406744,
          0.6906211732914943,
          0.7528473034876273,
          -0.7867261120727891,
          -0.5283177002458701,
          0.47427683965764106,
          0.9419318359591029,
          1.8282509393612139,
          -1.644750849378319,
          0.2106501923241009,
          -0.7692695747862123
        ],
        [
          -0.3782037284175788,
          1.1528944801191108,
          0.466745407756733,
          -0.7600013590205067,
          -0.1379364862987863,
          -0.21795975808407647,
          -0.41906099426226984,
          -0.040289666501872094,
          2.546058387228934,
          0.12432761871601848,
          -1.6340579528193342,
          0.33566612863448014,
          -0.5009996951238173,
          -0.30659880169269776,
          0.5733965205215212,
          1.2773007866768946,
          0.34970842625399695,
          0.7271705935234878,
          -0.05581912931077335,
          -0.21696263134504248,
          0.17098931590790997,
          1.1935810297964138,
          -0.15291915115484486,
          -1.697151540353584,
          -1.0320115464599664,
          -0.22194210834306932,
          0.9114447414743063,
          -0.15781024008440925,
          0.8495626911783332,
          0.2252986636164695
        ],
        [
          0.5589807372850126,
          1.756458773941921,
          0.8446359748638491,
          0.1340661728192812,
          -0.8322240429723265,
          -0.5662130910425972,
          -0.6266408986581429,
          0.44881684690445295,
          0.9954595011366799,
          -2.5371098267256933,
          -1.3237288178605187,
          0.3650808516637404,
          -0.49004998410594014,
          -0.08933316270347165,
          0.2741811886023403,
          0.8447323942244341,
          1.6163295251315664,
          0.6176885432723643,
          1.5562880847479903,
          0.09345283286394582,
          1.0732945133803469,
          -0.18648589586265188,
          -0.8352529112452389,
          1.4449028972665705,
          1.0824321910328438,
          0.018780562061249707,
          -1.1646359938781274,
          -0.0379710231701249,
          1.3187110039566432,
          -0.32199362963513173
        ],
        [
          -0.10020266943849752,
          -0.9874944353746075,
          -0.2998774927752804,
          -1.229209824240042,
          -0.5418770718099222,
          -0.35076161601284844,
          0.2471356307568309,
          -1.1518724532158267,
          0.9240531291246492,
          0.09764824218529193,
          1.396433701055769,
          0.6141798928457534,
          1.8532701369688778,
          -0.0454892356369902,
          0.030041277250195,
          0.7740970771505021,
          0.7997223958532661,
          0.7926813991635681,
          -0.558738534145179,
          0.10263705711880944,
          -0.3850378523466867,
          0.007001165052592524,
          0.5569850880413975,
          0.9509873725670925,
          -1.7730773718614652,
          0.6256360388513503,
          0.2872273676420792,
          0.17400894796733382,
          -1.712916017920284,
          0.2937590257204562
        ],
        [
          -0.7854145758680953,
          0.3760571307056877,
          0.7441943231120559,
          0.6304255519517943,
          -2.420942967219514,
          -0.033601380997462474,
          0.31006111452263335,
          0.5237402551714005,
          -0.7485233580906344,
          0.9630211623853804,
          3.4605007453668017,
          -1.3231852213781976,
          0.02824214702743738,
          0.1343988025606559,
          -0.5047981930012211,
          1.346407785478922,
          0.03729822361722948,
          -0.6821785750732219,
          -1.2065356857437295,
          -1.0475466061222316,
          1.6058621571970106,
          -1.7470716691423234,
          -0.5115959362731036,
          0.024320660979809266,
          -0.36210997912196763,
          -0.25266558053113775,
          -0.6577734473338658,
          0.6249625681049253,
          0.08741380393267514,
          0.3245329028159363
        ],
        [
          -0.6145771352130658,
          -0.2010643197107171,
          -1.6762333912682317,
          0.7327936168525008,
          -0.8202369899703377,
          -0.34430457048667873,
          0.5610029466774132,
          0.9875768353055908,
          -0.4321642687687379,
          0.43746065989647154,
          0.9230461163411511,
          1.0882658454126641,
          0.857884702228089,
          -0.6968015196544726,
          0.46209278388953356,
          2.326983653994858,
          -1.0372753350076342,
          -1.728558801228761,
          0.8874534710844332,
          0.1107761183952433,
          -0.1644967110939275,
          -1.242228378111409,
          0.5302494641149671,
          -0.41250083573594565,
          -0.9079732664020539,
          -1.0106493820341176,
          -1.0990035149240371,
          0.41671335713314467,
          0.8490762917602929,
          -0.2817561443390055
        ],
        [
          -0.4477694253025587,
          -0.43546234640450865,
          -0.16013686222463758,
          -0.8751783994382913,
          -0.31467485729249767,
          -1.2000781063784969,
          0.15288951143967508,
          0.9606017668579474,
          0.31344668545056953,
          1.26990082356759,
          0.03267730303410481,
          -0.2001088947486883,
          -0.4610293506682196,
          -0.6573980919157735,
          -0.4707303269589687,
          0.6583997076357623,
          -0.35179075122305714,
          -1.3863265696437779,
          0.5677329995353118,
          1.0158732404995408,
          1.8808807224188655,
          0.3947070654291924,
          0.9229537307258919,
          -0.5269415386198623,
          2.6380596728568495,
          -0.9421192084173406,
          -0.4166648970810728,
          -0.4223833942876053,
          1.3142336423522714,
          -0.683406396230502
        ],
        [
          1.4704354841141327,
          -0.7280647640360681,
          -0.3973899426977119,
          2.103706900783193,
          2.108653385581795,
          -0.9063453293653425,
          1.5998658402946218,
          2.8199883658995613,
          0.3008920548020234,
          -1.7137812013993439,
          -0.3174844819985572,
          0.09616083304875742,
          0.5071561309334374,
          1.1771817012980443,
          0.5129283549279016,
          -0.12159091712063505,
          0.18735118875698525,
          2.141541261830177,
          -0.6060373190395547,
          0.8941170725510535,
          -0.04658318875981103,
          0.8085611091969312,
          1.2613055695733713,
          -0.9107226905006285,
          0.2296929177415732,
          -0.013402079827905077,
          1.1970696687136808,
          0.7331190999901254,
          0.9729613370185667,
          -0.522959478716988
        ],
        [
          0.19660550930080978,
          1.4224844285917717,
          -0.413135774559075,
          0.6558927531103257,
          -0.7535424206762289,
          0.3397558529173835,
          -0.7389687886821348,
          1.1916832706527867,
          -1.7829583828347837,
          -1.6203692275120822,
          0.615222328222892,
          2.1708995695291113,
          -2.590243254223868,
          2.208053975184593,
          -0.6874969179718639,
          -1.0640289535103646,
          -0.20193535481685357,
          -0.2557052994982133,
          0.6477971953075449,
          1.0385634552238407,
          0.8392657999679592,
          -0.26902476474173753,
          0.4894114841992393,
          -0.9668249349802783,
          1.7225870539871584,
          -0.06958119258051146,
          1.1937740975644082,
          -0.16312960421893655,
          1.5596872277138272,
          -0.7585907752190719
        ],
        [
          -0.8478877404432869,
          1.8879640486668519,
          0.598570735272874,
          0.140876589245295,
          -0.9168866348525162,
          -0.34314727013494956,
          -0.42077182675580105,
          -0.9620582295075031,
          -1.3783191817785205,
          -1.2851921506653334,
          -0.2312075930418077,
          1.5695968650688499,
          -0.32677707208016216,
          -0.2846610874913787,
          0.03794030640559502,
          0.3720235814109057,
          1.3388545394850946,
          0.38127819039984023,
          1.6551852018408348,
          0.33280786683312263,
          1.5223031626204866,
          0.10645825150697732,
          -0.9240362646145743,
          -1.4686592726955603,
          -0.9461832139650126,
          1.2984914416723998,
          -1.6352464688586363,
          0.8094733066318697,
          2.5429249187538594,
          0.4144847238498678
        ],
        [
          -0.1338431619223215,
          0.060529494170525104,
          1.1258613180575805,
          -0.5335744414203304,
          -0.30846255215122187,
          0.7530945481124556,
          0.3507289133201699,
          -1.254714582266647,
          -1.0507468328755418,
          -0.7421179803226053,
          1.5216176622620154,
          0.31874278123768035,
          1.3342676367590043,
          -0.9632720727726302,
          -0.19838635465073715,
          1.0422405639320715,
          0.8595855105869357,
          0.778392809545676,
          -0.46290938465340764,
          -0.5042704111098442,
          -2.284607630249292,
          2.260095959947235,
          0.2794622872898973,
          0.5789063679974673,
          0.5746686512535886,
          -0.011050488444802433,
          2.424155948592641,
          1.5559556547357791,
          -1.6580897402904615,
          0.36472304318639237
        ],
        [
          0.6642249993727416,
          0.590780625205777,
          2.083855816123005,
          0.13297537589014974,
          -1.1291524797858392,
          -1.6625732941323426,
          -2.002094631464964,
          0.1252797372927209,
          0.6142723829366248,
          1.8765914917766688,
          0.37496869787556675,
          -0.33510773856047105,
          1.3120017894500398,
          -0.048329682019909205,
          0.7976301601933652,
          -0.21390577112664166,
          0.11857255086654804,
          -0.7374609311237859,
          1.0422265416080458,
          0.6575986568082681,
          -1.157547930499702,
          1.0643712374829446,
          0.25439067294003487,
          1.3399626386864183,
          0.2656482649167267,
          -0.07672831833017235,
          0.270529317917097,
          1.2212843191415963,
          2.101068567986362,
          -1.422129367151994
        ],
        [
          0.43351674960705244,
          0.4083758204703549,
          0.04600548512917529,
          -0.6237992254856969,
          1.0527921057057763,
          -0.5078490866378764,
          -0.17068117972831565,
          0.29856536111959553,
          -0.44690955811134697,
          -0.7293568244591645,
          -0.13551967031016574,
          1.2992987424255393,
          -0.7268571005165321,
          0.1382328833995748,
          -2.4420283575307558,
          0.09321952739234922,
          -0.8365218063753082,
          1.7226777750865847,
          -1.022495544199046,
          -1.9843445711475203,
          0.16778189796853596,
          0.6201662066964924,
          0.4022951755921897,
          -0.5980666903445111,
          1.0368262949036746,
          1.3534891640637574,
          -0.03786682119613659,
          0.9008110114183657,
          0.10589858041593314,
          2.6926388543294095
        ],
        [
          0.5981415901581036,
          -0.7164967029266154,
          1.658267177995917,
          0.47719748205786855,
          0.056393028505377266,
          0.15668420918433862,
          -0.8706686298474686,
          0.11000406386846674,
          -0.8108946787314694,
          -0.7935807841992347,
          -1.2170802175202242,
          -1.5366676385445606,
          0.13364751875869166,
          -0.7650647413479723,
          -0.11342145588975724,
          -0.13814661879016435,
          0.26231635034454015,
          -0.6996027660083233,
          0.9638272950057085,
          -2.4590434392860843,
          0.04918786551733799,
          0.8171011103672677,
          0.18635590620341236,
          0.5389856196762545,
          -0.04565678338836229,
          2.0834167242215127,
          0.8494115974871873,
          -1.4179031597235843,
          1.703716033016013,
          0.38749407150075876
        ],
        [
          -0.4495200959994258,
          0.3495997646254256,
          0.11244724219905065,
          0.2164272171342574,
          1.230579141103188,
          -0.29578437650508227,
          -0.5353667448357884,
          -0.14932626609638391,
          -1.3160875127683906,
          -1.770329880380391,
          0.007694919899010202,
          -0.7229380518091341,
          -0.24121730582181122,
          0.8331694290317481,
          -0.7113452446632578,
          -1.576251783509658,
          1.0535836014162272,
          1.2525812214946086,
          1.3929259435905526,
          1.6783274057563864,
          0.27507305314171315,
          0.36955020170566644,
          -0.20505889047376596,
          -0.9694144681163552,
          -1.6720327174584444,
          0.2799043302790137,
          -0.505051160544105,
          -0.36312889895765876,
          0.9753580763835547,
          -0.08650947701025336
        ],
        [
          1.039906987407852,
          0.5690576604763785,
          -0.5261422991216892,
          -0.967654513411123,
          0.2474106119332538,
          -0.1338888347986173,
          -0.294188143570825,
          0.06092093735143868,
          0.5421681037366222,
          -0.22312428725201966,
          -0.7337621507555958,
          0.7791951184074201,
          -0.19799687417017858,
          0.5191998101847713,
          -0.3532600396781362,
          -0.2526912279064381,
          0.386867702176025,
          0.1691644024064126,
          -0.4292753339275953,
          -0.4246354605254048,
          -1.2606462652233499,
          -0.03450167081620741,
          -0.5987906979288369,
          -0.20345726370918876,
          -0.5901268484779868,
          0.8632697443789278,
          0.684331496921478,
          -0.4586804412846685,
          0.09444679741961581,
          -0.09890401800719775
        ],
        [
          -0.00917715902861043,
          -1.4864009216445315,
          0.4438278630796097,
          0.4387356720884057,
          0.8239479647860245,
          2.316057459760245,
          0.3229851371396186,
          -0.5874943395369269,
          1.1513841602907058,
          1.0542347431920749,
          -1.3476518641703767,
          -0.1217920675632115,
          0.03825519700866823,
          0.5965059018358398,
          -0.6528009626688163,
          -2.7307070003966762,
          0.32697718574282253,
          0.5253641119840161,
          0.07466699888403956,
          -0.5433851427501689,
          1.3497828604543451,
          1.361730120268635,
          -0.1302346067022808,
          1.0300056575405507,
          -0.18877706570656547,
          1.3803901690874978,
          -0.7504653637979032,
          0.31755320012605753,
          0.11499451615575998,
          1.4372818220968553
        ],
        [
          0.5630300144181754,
          -0.12538606263656663,
          0.4503100256539423,
          0.23418901969606962,
          -1.5113921732959112,
          0.0013225310866278193,
          -0.1642087317340032,
          0.6895646353356433,
          0.5074853470508319,
          0.07156229811840496,
          0.8662249278536356,
          0.6204298394188303,
          -1.2289192715993995,
          0.6954940856861228,
          0.7317652533559584,
          -0.8197831366109619,
          -0.26334278683230516,
          1.5244240354694873,
          0.5905728823377553,
          0.5008904102539304,
          1.2556837740841478,
          0.5180645394166522,
          0.4681964851222065,
          -0.2713465804179451,
          0.7407174555015072,
          -0.4499801399266364,
          0.4923998448324314,
          0.9229822497246365,
          -2.1729250113858516,
          -1.2384847024270416
        ],
        [
          -0.036374537954657025,
          0.11879740943763265,
          -0.9716146454042064,
          -0.4108594965626954,
          0.9756167871083653,
          -0.767665927906231,
          0.19179155906382742,
          -0.46442513293697546,
          -0.556554058137877,
          -1.0748393886682657,
          1.4551387359521393,
          1.2343665030112076,
          0.377562445525063,
          -0.6490824566901411,
          0.1747458718659774,
          0.788511422663721,
          0.17291456962839288,
          0.8887997966538091,
          0.5837683051073734,
          -0.9870233769556972,
          -1.0717387666171316,
          0.21641209641100143,
          0.12715625448663107,
          0.6007227023993887,
          -0.46772477087357256,
          0.21750331596882175,
          -0.8038586713307345,
          -0.23504114857980124,
          -0.30350042805613736,
          0.1938005955486841
        ],
        [
          0.47910930939453583,
          0.030302093071215317,
          0.13530465647504736,
          0.685608003326829,
          0.39943164626986083,
          -0.7772192989729783,
          0.868321523333762,
          0.40723820173758307,
          0.31560231428866464,
          -1.505714503759389,
          0.6134594115711635,
          -0.49437247461642303,
          0.8980249930823415,
          -0.13181218443482906,
          0.1631848364052356,
          0.978027086443644,
          1.1095535409417765,
          1.2769973293162888,
          -1.5503007646217726,
          -2.0413101279041688,
          -0.49384368382557403,
          0.346699280641336,
          -1.1757824366663323,
          -0.8565794106328724,
          -0.26314910357555504,
          -1.6217731660117896,
          0.7474434369726328,
          -0.8574920913054583,
          0.5226280356722914,
          -0.7501752545577636
        ],
        [
          -0.5542350003478002,
          -1.3487222099507257,
          0.33501849242383813,
          -1.162007825653091,
          1.4703117734732276,
          1.5400921021585834,
          -2.907786596955415,
          -0.38811396448258284,
          -0.23270813870384094,
          0.4785649846966568,
          2.5215802150844775,
          0.2675836417954764,
          -0.059135653066387815,
          -1.0382445370705273,
          -0.14628128085096603,
          -0.7367512474266502,
          -1.7874620382334558,
          -0.5034574586071923,
          0.5944371270698222,
          0.26438868590471204,
          3.9567144868752084,
          -0.7710355825280779,
          0.44018128956785696,
          -0.7492211437103741,
          0.03569874484450146,
          -0.00657046199540772,
          0.7436142456867787,
          0.05968477075910517,
          1.812106324251117,
          0.8827675751595905
        ],
        [
          -1.8608361451273776,
          -0.4930107466610157,
          2.1457048655929896,
          -1.4164807474975973,
          0.41822410035078533,
          -1.244197175366482,
          0.9532299175514787,
          0.7031195659766284,
          -1.5281745490152048,
          0.7006661703295959,
          -0.29730353127596515,
          -1.8724604638104294,
          -1.1154121862543853,
          0.8930461419071092,
          0.03503233857279998,
          2.503735787017225,
          -0.9429297269440755,
          1.156430538684718,
          -0.9704986226963378,
          0.1315332713597055,
          1.0385228938526399,
          0.2508408150201142,
          0.5885018955616013,
          0.14714676291539147,
          -0.4252260773925385,
          -0.4958789262524441,
          -0.23281091465789083,
          0.7122174677320192,
          0.031651248473426805,
          -0.4678616104834117
        ],
        [
          0.6865017345890018,
          0.9232788079054608,
          -1.181105059713311,
          0.2198073404410296,
          0.5432730197328363,
          1.405646882512756,
          0.9862540369738421,
          0.11761472655463774,
          0.029489389321789763,
          1.0946724983247913,
          1.3909610517277355,
          -0.28460558603981334,
          1.1437322876546971,
          -0.31712587151373334,
          0.3247947486779134,
          1.0096845068816005,
          -1.2296568463182533,
          0.7089085957152811,
          -0.5344105782317109,
          0.2253523292061844,
          -0.38854670969068356,
          -0.36018351582925723,
          -0.888886606194968,
          0.17411241499597507,
          -2.078838869532653,
          0.4836827100149447,
          0.6189306041008474,
          0.6753620485796046,
          0.3552599895584766,
          -0.6252353542478173
        ],
        [
          0.46399197881428417,
          0.08684993946345532,
          0.6453762733735172,
          2.1505731960833434,
          0.20593066680439606,
          -0.519193989801276,
          1.287207152058124,
          -0.5879244636785868,
          0.8903465020443705,
          2.032062765102979,
          0.866260013262937,
          0.33768837217298264,
          -0.14349890717097208,
          -0.2008502030188279,
          -1.5688485069226923,
          1.2715586787234052,
          -1.1865586250076239,
          -0.24604425595020032,
          -1.721173613176207,
          -0.24332242362211273,
          -0.3685416608469964,
          0.4679113117933932,
          -1.139674831528317,
          -0.37346139976953263,
          2.104021219113973,
          -0.9811491914496044,
          0.5199390117582662,
          -0.770054187998615,
          -0.5754829430526841,
          0.8304503438100526
        ],
        [
          0.5566974312282945,
          -1.0830058056985776,
          -0.6723197143254022,
          0.15250847008135246,
          -0.04266990815623418,
          -1.2736102530143159,
          0.0821193291346717,
          0.8108502342295143,
          -0.9465714408479415,
          0.27126404612279076,
          -0.4425337314843396,
          -0.6471240723797853,
          -1.1191944457527856,
          -0.08868272218413667,
          -0.057777696503804495,
          0.9613148525244636,
          2.5011693198579783,
          1.0033609976836206,
          -1.1469546837372253,
          -1.1338010468502302,
          -0.6086709877955233,
          0.21138132284138342,
          0.32285276681513553,
          0.8728974897263807,
          -0.4701276853712132,
          0.8517963630591021,
          -0.2525290653353689,
          0.9567291414209947,
          0.011253450310601454,
          0.534704484794864
        ],
        [
          1.3384599569182625,
          -0.7749826088319312,
          -1.7987200893429223,
          1.4185740776748779,
          0.5737267238715041,
          0.9406638386259908,
          2.677731116608991,
          -1.1656742421668052,
          0.5009079392678164,
          -1.0605774670819217,
          -0.6079970480852447,
          -0.14954882795646637,
          -0.004384040923401203,
          -0.6657554813587573,
          0.19062965785638444,
          1.1505407252483217,
          0.6816704412765029,
          -0.3730330258090559,
          0.16642687386363147,
          0.27716855574638316,
          -2.866384540557868,
          -1.8446643715935518,
          -0.920258858157326,
          0.014173747785952479,
          1.13579667940386,
          0.22306614372714384,
          0.6328215495058559,
          -0.9752871248107505,
          0.1080218679161647,
          0.8928082687312338
        ],
        [
          -0.2573181139739995,
          0.6460369923274979,
          0.9607257891257209,
          0.3509630336902591,
          -0.1755159793088815,
          0.922514934873026,
          -0.7759762678558003,
          -1.1768719073923843,
          -1.190953752413175,
          -0.5574130630719393,
          -0.9337299960179967,
          1.1794759711477762,
          -0.11560742880280456,
          -2.369983723704971,
          0.14515712033774014,
          -0.12499292700644966,
          0.006192947540278462,
          0.7766895366480988,
          0.4001523326225771,
          -0.7498409705122484,
          -0.9930995537715482,
          0.7836214900492501,
          -0.2466632558851988,
          0.6726980524795465,
          0.3426976854710738,
          -0.39612821314585395,
          0.43285961072811013,
          0.40769194676961606,
          1.4904054840392675,
          0.5222808473312914
        ],
        [
          0.049839369935891685,
          -0.5179252988474463,
          -1.3153165007982128,
          -0.24684324389742393,
          -0.47341351126114894,
          1.9950450815139122,
          -0.3523689782758755,
          -0.8795814606201552,
          0.5284167949318096,
          0.9080794433138386,
          0.2951625542441623,
          1.6930279913036295,
          0.564621427301529,
          0.021706728250391032,
          0.26918919301548644,
          1.169511206609617,
          -0.015262149230822414,
          -0.2860472394661888,
          0.7261401257529281,
          0.7983296308236982,
          0.40051322059559824,
          0.7431087780983512,
          -0.6382723389035411,
          0.1342607284163513,
          0.3952420949569427,
          0.319086992695168,
          -0.8456322544222988,
          0.35952257706521645,
          0.21265907803029,
          -0.778134313521542
        ],
        [
          0.05287907459432887,
          0.5949070799452714,
          0.5651654743303869,
          0.5556014372322905,
          -0.9395817995367783,
          0.27075936645606175,
          1.7726466078842102,
          0.2820566804282574,
          -1.3842322452770572,
          1.045121467557905,
          0.5339236994111636,
          -0.7317548781918142,
          -0.06544467057778175,
          1.764569997916694,
          -1.9574352588049495,
          -0.05524801003312771,
          -0.0657194278334935,
          -2.193953139503233,
          -0.9988070124433714,
          0.3800899678602961,
          -0.6292862240867658,
          -0.8284910830624029,
          0.19842428083453817,
          1.0355766028593276,
          0.0011977905242396298,
          -0.3100090922249401,
          -1.1436028176632187,
          0.8442391001215397,
          1.398237524135301,
          0.6725888388441058
        ],
        [
          1.6939783626667015,
          -0.46977775539026706,
          1.123177646692692,
          -1.6550549271989572,
          1.9256734073308663,
          0.20762832422335084,
          1.5899908985195987,
          -0.05051829984458684,
          0.6030798795168729,
          -0.02702589840021031,
          -0.5078982104496143,
          -0.3772817411973186,
          1.202152031311783,
          1.2629204865241372,
          -1.3285995089016558,
          2.0053263290720515,
          0.7775861054609271,
          1.696354395242682,
          0.8935069482718018,
          1.4512813956256423,
          -0.24624820639110218,
          -1.3934212660298795,
          -1.6785958833437304,
          0.006813899420644702,
          -0.5727026681116242,
          0.06830604311224317,
          -1.2087343163692081,
          -0.006527896223597216,
          -0.028009327381660298,
          -0.4301465449636573
        ],
        [
          0.36173830605623775,
          -0.8669979577179867,
          -0.25652711951502116,
          0.021616589785829605,
          0.5212549892456366,
          0.2999084095924512,
          0.9854265991967418,
          0.25638191034549945,
          -0.7603860541523578,
          -0.6862765860809414,
          -1.3986997869965712,
          0.06112161285112249,
          0.9748925688599684,
          -1.2190249003685245,
          -1.9784731706974117,
          0.35975698364590963,
          1.7081269827861498,
          1.8780209051256143,
          -1.3456433488143489,
          -0.1413159145397055,
          -0.24831104003636384,
          0.4967368373541944,
          -0.9579455434872313,
          -1.4588862976895984,
          0.37685270691949746,
          -0.46223497661917906,
          -0.4422753092901414,
          -0.31883020849123506,
          -1.6109827935619763,
          1.0071443501741408
        ],
        [
          -0.641223579270977,
          0.3116227851679796,
          -0.033205979959835846,
          -1.5595745544968418,
          0.8357616980546374,
          -0.5744764567541285,
          -0.2848057613642027,
          -0.8478712849934122,
          1.4683317348551461,
          1.2276515673949935,
          0.975861482758437,
          0.058487974270572,
          0.19531915273403544,
          -0.42061770005122884,
          0.1858155809977171,
          -1.4893586954849205,
          -0.3533037071399056,
          1.5640230755639963,
          0.7005235938149589,
          -1.6721212532148204,
          0.12297926037068609,
          -0.9348175036841071,
          0.6843222612178915,
          0.04013024898394299,
          -0.4196017532874128,
          1.183027305873557,
          1.8947590507980827,
          -0.003093339970699493,
          -1.9115721754853099,
          1.9146885938527471
        ],
        [
          -0.31975348077321614,
          1.752337042049897,
          0.6553164389214683,
          1.5800153909169095,
          -2.5090891384513454,
          -0.589683126309997,
          -0.7628493990173445,
          -1.6883510735288343,
          -0.23318573714163163,
          0.1538920184313888,
          0.7481988322991934,
          0.7833154349043161,
          -1.6792221640648306,
          -0.5482312484160329,
          0.8403020201808858,
          -0.4010792698580596,
          0.2289875408770437,
          -0.3588543439745233,
          -0.030644169873926128,
          1.1187868032745507,
          0.5037299798286385,
          -0.7315923794732181,
          0.6211359121627741,
          -0.8027261274303188,
          -0.6638213638532521,
          0.7195189283847218,
          -0.39556148506528094,
          -0.3481094270077427,
          1.6197125925227127,
          0.9212083204016334
        ],
        [
          -1.8048816899187399,
          0.3012378439328393,
          -0.3184936904436382,
          0.34534713977485665,
          0.9882238035164166,
          -0.5043303240868303,
          1.461876625288023,
          0.1752469061544174,
          1.4330788436149091,
          0.5327213686430002,
          1.5105006382429493,
          0.4902805766146126,
          -0.38859580691335976,
          0.0752451978182982,
          -0.8487379943363514,
          -0.9062742146151953,
          1.2109571234315064,
          -0.19591002998640022,
          -1.3255612254329356,
          0.28816949010995163,
          -0.5001266358362558,
          -0.2569602318950303,
          0.13427955777848216,
          0.8537987066698086,
          -1.5864910925645275,
          -1.6578027790235055,
          0.5957460798926688,
          -1.7805442274008327,
          -1.500448938972059,
          -0.9689761483571657
        ],
        [
          -0.3020392930958243,
          -0.7665881415219941,
          -0.6897098488016783,
          -0.5339085495372146,
          -0.4022682138819148,
          0.01114029295431845,
          0.09677388824175892,
          -0.41752258845291107,
          -0.5859762263227583,
          0.8820244795852339,
          -2.518616334209628,
          0.7673475271589987,
          0.3781964252357533,
          -0.7224551053965904,
          -2.4775873466072214,
          -0.7205345284491519,
          -0.027162571075257474,
          0.34696293476301804,
          0.6168356557977764,
          0.01212803363141349,
          1.8972812082277644,
          -0.5821778140199314,
          -1.4781565950471756,
          -0.03890713030240068,
          0.32297020927969183,
          -0.9944882764419344,
          0.932546053812217,
          2.455433888529881,
          0.24924173060436286,
          -0.23173331230585556
        ],
        [
          -2.1609581460351603,
          -0.18234918022905758,
          0.8485780247256794,
          1.075071507770671,
          0.883504728125755,
          -1.0291374697934588,
          -0.6126730998962638,
          -0.8151377454222539,
          -0.02230114503599562,
          -0.8229615734531407,
          -1.5471834892567689,
          1.5782392592199548,
          -0.7260227643319014,
          0.47764272873782154,
          -0.9913058074850217,
          -0.345896006883377,
          1.0811230434107344,
          1.8480154507345288,
          0.3570536676470212,
          1.4642811660693007,
          0.516325370728124,
          -0.3243728266354735,
          0.849376703687262,
          -0.28395914852469656,
          -0.13633447705758248,
          -1.4354107917895655,
          0.300554684312406,
          0.28230963445916873,
          -0.44777528299995445,
          -0.8657242195769631
        ],
        [
          -0.33906976644306747,
          0.1638504533003818,
          1.6698822580767192,
          0.05918181363847462,
          -1.6639583658086559,
          0.46536652672524004,
          2.4816286933643417,
          0.8663752870007174,
          0.3645057713365934,
          -0.9433193892946558,
          0.40061347496613287,
          0.32368103849174157,
          2.2247585847510347,
          -0.012570150421652238,
          0.6387613201057941,
          0.5700276964722146,
          -1.597372009988893,
          -0.7133273598264106,
          0.1549107913382728,
          0.7594791094926067,
          -1.3666711726587217,
          0.04739440963664538,
          -0.7312303055057539,
          0.9441683691431406,
          -0.07870202554828622,
          -1.952702133621046,
          0.48739587012853663,
          -0.21890936434568387,
          -2.384859915225339,
          0.004168243037276095
        ],
        [
          0.30975086470394336,
          0.7932046304601706,
          1.1849283597760965,
          0.14938981225058637,
          -0.04835344428571681,
          2.1378678858021964,
          -1.1689922805941801,
          0.0822382570971027,
          2.3331775613167567,
          0.6941865510258325,
          0.5881473961317457,
          -0.4667572805172681,
          1.2724778702953743,
          0.37209602920032675,
          -0.22066072278650042,
          -0.3723419721536483,
          -0.43729273013608344,
          1.4422517204265026,
          -2.6335447603618216,
          2.451375845472388,
          1.4137245524704747,
          1.4923052378671555,
          0.9451571109236938,
          0.3061844862169174,
          0.008342266760511871,
          1.7674088606325342,
          -0.7631706406151804,
          -0.12259469249433429,
          -0.8552792693778376,
          -0.3028071058802091
        ],
        [
          -0.382860663241252,
          -0.5772802843178789,
          0.4127584860404695,
          0.0170221945124873,
          0.7949542414451136,
          2.016970200326641,
          -0.9036849340121464,
          0.6114764824444308,
          0.5134025832566579,
          0.21749391660289413,
          1.0524979967745332,
          1.693342267338615,
          1.0024678834652367,
          0.7481111360392887,
          1.2005265549050177,
          -0.00836440577094923,
          0.9591422321966887,
          0.6513302264348633,
          -0.8013479449653538,
          0.8721964812459215,
          -0.4104114277968426,
          0.4021592961669212,
          -0.6835064405865411,
          -0.24871779628350715,
          -0.04765337272624032,
          1.1447674262580303,
          0.40656128118014384,
          1.4718443524963198,
          1.6398884602251358,
          1.869169811769631
        ],
        [
          1.011742676613098,
          1.0843672330625183,
          -0.4653599047876419,
          -0.5466869906637153,
          -1.4790239940944423,
          -0.1355106643822886,
          -1.447814475918892,
          -0.9768122251902731,
          -0.1988691800975187,
          1.0570415530143766,
          -0.5592768559817107,
          -1.1062486677407468,
          -0.02297256786778151,
          -0.7373457403297274,
          0.03579480750341553,
          0.3658701004181241,
          -1.1082449390767082,
          0.709062929087521,
          1.170409134336877,
          -0.02600371959361858,
          -0.9744930553885007,
          1.0552727697914337,
          1.229359885901523,
          -0.24809379165800505,
          -0.6531973256299201,
          2.431180430888792,
          1.282213571344192,
          -1.0282191519595634,
          0.51403714394335,
          0.5343482405644153
        ],
        [
          -0.049283546944017716,
          -0.46387060247766465,
          -0.5115932088910919,
          0.006336708178889162,
          -0.021980500622662453,
          -0.3637800155670288,
          -0.10546442412011214,
          0.5622100622984021,
          0.8417845198135149,
          -0.20893900874406324,
          0.2194133767704773,
          0.7943411872469477,
          -0.6917911214190265,
          0.17819034521344912,
          0.2622615433610013,
          0.5349486077315379,
          -2.0146190983372008,
          1.7139636048166014,
          0.6545568403904721,
          -0.07267197507491145,
          -0.1661116030101792,
          0.5840293277606919,
          1.2761605286147653,
          0.43643139980464096,
          0.33220508820231787,
          0.3700314317459996,
          -0.7026749316642469,
          0.03499369671215088,
          0.33693807046693125,
          -0.25805618893332904
        ],
        [
          0.4534046356418587,
          0.6581538477611575,
          -0.10237588043736918,
          -0.3844275045950812,
          0.07532196245782466,
          -1.0226764350830666,
          -0.8083348051504399,
          -1.4363964880690792,
          -1.9475321130211805,
          0.26862844388916646,
          0.14053808517863353,
          -0.7302605956997624,
          -0.5297174180817,
          0.5596585878413143,
          -1.405295384003485,
          -0.17120821617965123,
          -0.02911009373238621,
          -0.8961613669761965,
          -0.23874650119396781,
          0.7898572566972336,
          2.470650733055136,
          0.3354878501074065,
          -0.5801644725352169,
          0.7339373951554078,
          0.8324090499785516,
          0.5527580656392298,
          1.2839985179111861,
          0.26138402174139863,
          0.15126572921529005,
          -0.7650537233319897
        ],
        [
          -0.23105043943968342,
          -1.7325530353364789,
          0.4427114349340239,
          -0.16364217824698152,
          -0.23789597744626872,
          2.0011161338953793,
          -0.06352443351818965,
          0.3940739515303209,
          -0.9023189297026979,
          1.4285488982687813,
          0.2749659590677696,
          -1.0684464860628324,
          -0.5710693097951756,
          1.0214276533637108,
          1.0866398754809885,
          -0.27484842874650534,
          -1.6045642994378033,
          0.47538025352769503,
          0.11124300230188616,
          0.5186752814418779,
          0.5939174552839451,
          -0.9222261278029743,
          2.0516680640225706,
          0.6654603218219782,
          -0.14718275878340403,
          0.16711027684541938,
          0.20845379255806348,
          -0.2253977724018642,
          0.16227855348521192,
          -0.41424132768032085
        ],
        [
          -1.0616408352059457,
          1.8027909393564185,
          0.4328351916403628,
          0.25975048583753174,
          -0.19576981070677224,
          2.246569360765808,
          -0.09176227524788494,
          1.096791915588522,
          -1.048254500737316,
          1.2393515952677103,
          -1.0214879736317342,
          -0.7408744492362827,
          -1.8198856864384212,
          0.3323691170929487,
          1.3256444293277072,
          -0.6106012605506245,
          -0.12813680310843686,
          0.9624403062740442,
          -0.24887588331059315,
          0.27083138224498954,
          0.4581939207713794,
          1.0945071892753613,
          1.3529351962084104,
          -0.8540966427692885,
          0.10940941683825199,
          0.13058021778618165,
          0.4085115509595882,
          0.09818474022602382,
          -0.16661129818314407,
          -0.49896956108144236
        ],
        [
          0.09905569023152774,
          -0.1609005735491134,
          -0.83428228180062,
          0.39051399345026966,
          -0.3535886584688287,
          0.5203150699966057,
          -0.4897986747800296,
          2.4623917345340507,
          0.9335290927602465,
          2.940284619676511,
          -0.14569358085188916,
          -0.28217233204909814,
          -0.9230771345273691,
          -1.5523488135592947,
          -0.8447133538593804,
          0.24351172420353465,
          1.6106540681711692,
          0.11403991015052488,
          -0.34317991388616315,
          -1.4952092407718531,
          -0.4000941023784158,
          -0.21550341764865377,
          -0.6657110851232699,
          -0.17279122755081897,
          -2.580031664767072,
          -1.2277373201847976,
          -0.762955174630231,
          0.9159803567446299,
          0.17349778081968603,
          -1.5834451336089401
        ],
        [
          -1.0156485598982408,
          -0.8462495918622652,
          0.5942229610947068,
          0.02742952267610108,
          0.6512707093855802,
          0.7109378579792122,
          -0.6384448579653224,
          -0.6393323524318553,
          -0.3710971481246169,
          0.38087381911032514,
          0.2517444399189827,
          0.3538042615159022,
          -0.22484610553770842,
          0.679931824401955,
          0.8068874943294129,
          0.28660191631167353,
          0.7920918112900978,
          0.4668890958564741,
          -0.664474461788224,
          -0.16698562353895904,
          -0.49388951951112947,
          0.7529636918654461,
          -1.1999997519609922,
          0.040579038908619004,
          -1.1180810509970824,
          -0.9963866736571618,
          1.1186440128978208,
          -0.615925704348871,
          -1.2180097420652138,
          0.33488669372453245
        ],
        [
          0.3351097124768779,
          -0.7475777597828649,
          -0.6263049750700672,
          -0.45035126280951654,
          -1.5226830809354686,
          -0.4032185101906196,
          0.29372433459793007,
          -0.14402558911980454,
          0.5132418906025878,
          -0.39877445460353367,
          -1.7336195621299901,
          0.05791042335605571,
          -1.1485994964638515,
          0.12987697755199368,
          0.7735837529416772,
          -0.19641955907876305,
          -1.0016832053633835,
          1.5861566790995592,
          0.9810659748261897,
          -0.19450282522264206,
          0.8238036257401092,
          -1.7979736829217967,
          -0.12203046314098093,
          -0.05601495631551621,
          0.18331837139640503,
          -1.6287466662345162,
          -0.3169556944487515,
          -1.8385337327958062,
          0.6806088021714815,
          -0.03644298917342328
        ],
        [
          -0.38604983176035607,
          -0.018310754430987584,
          0.2778383371282054,
          2.0001960618289534,
          0.3089672585220788,
          0.6013565886692738,
          -0.9461175455274529,
          0.5027651740168754,
          0.9462224323839378,
          -1.301644244108931,
          0.27845540838649246,
          1.1476519650878918,
          1.5029593446507157,
          0.2954251853792603,
          -0.1718287352711045,
          0.440188780301744,
          -1.6470738304950903,
          -0.3489775895331956,
          -0.7687893175465033,
          0.08798049663317684,
          -0.15926396176414678,
          0.06654250042147607,
          0.5735434520171241,
          -0.7537634993578057,
          1.1978687343467835,
          -0.3539674153797479,
          0.1623952270074427,
          1.8196085663061747,
          -0.6493108031130301,
          -0.344723647226308
        ],
        [
          1.5694454964489202,
          0.07201429427551373,
          -0.045483708270630974,
          0.9883582477852725,
          -0.3191135627858108,
          0.48109280594728426,
          -0.2572219122294811,
          0.5452524639315679,
          -1.4968004526642662,
          1.7313856436624202,
          0.8476486323740517,
          0.07565309743633161,
          2.060380576976235,
          -0.9936755238340373,
          -1.0134371796821027,
          -0.9459902657622558,
          -1.3932955397382343,
          -0.14548995003333598,
          -0.7032249192200094,
          -0.671861818079407,
          -1.0328229939048075,
          -0.647189499971383,
          0.10175964486271774,
          -1.2806655663003246,
          0.5601271388230488,
          2.514624084244167,
          1.1874903332358198,
          -0.2943059336256094,
          -0.12668714439944248,
          -0.11944366502266793
        ],
        [
          -0.046596218627799876,
          0.5353362625571918,
          -1.4792457142207416,
          -1.152321940676544,
          0.34932045512480364,
          -0.9044285615304268,
          -0.4025354869073934,
          0.12368396803301794,
          0.40907492895739117,
          1.6005113086215923,
          0.9748203474610218,
          0.9265844070691063,
          1.0722401962030823,
          -0.1835828711069764,
          -0.5466399221140901,
          -0.18734836707221195,
          -0.4238217164765893,
          -0.9694094958375024,
          -0.4370081861920966,
          -0.28097732336809994,
          -0.9768104576071961,
          1.4879087653723442,
          0.2596634879344035,
          -2.9634368490622913,
          -0.7051669169505784,
          -0.5507146846620066,
          -1.344720615678929,
          -0.07897067876355895,
          -1.1531659512070107,
          -0.6507555721841707
        ]
      ],
      "bias": [
        [
          -1.5504396094323767
        ],
        [
          0.08710555479736042
        ],
        [
          -0.7541130621407521
        ],
        [
          -0.5465253267306721
        ],
        [
          0.35219126410282525
        ],
        [
          0.8585452624556105
        ],
        [
          -0.13049523092979243
        ],
        [
          -0.4201920978607873
        ],
        [
          -0.48940150520342857
        ],
        [
          -0.23986551201364104
        ],
        [
          0.2212750715542148
        ],
        [
          -3.080286971143853
        ],
        [
          0.7133309519051851
        ],
        [
          0.02410645480679771
        ],
        [
          1.0519612428567664
        ],
        [
          0.5537802376617317
        ],
        [
          -0.10634322280459907
        ],
        [
          1.3762447172378207
        ],
        [
          1.6776199430195584
        ],
        [
          -0.43645187486363135
        ],
        [
          2.0531642200492044
        ],
        [
          -0.4630759018043205
        ],
        [
          -0.31165358591105385
        ],
        [
          -1.3463033792163166
        ],
        [
          -0.8968045265177136
        ],
        [
          0.034068961094021646
        ],
        [
          1.0873006405985897
        ],
        [
          -2.747798217439728
        ],
        [
          -0.7733916930734592
        ],
        [
          -0.7792270867311991
        ],
        [
          0.5038241640266607
        ],
        [
          -2.284894259814982
        ],
        [
          1.2016992326965765
        ],
        [
          0.3001330063795617
        ],
        [
          0.5886987946977287
        ],
        [
          -0.19032012877296972
        ],
        [
          0.6808138955473675
        ],
        [
          0.842195447946009
        ],
        [
          1.8226508939880781
        ],
        [
          2.3499263931159993
        ],
        [
          0.7193269186634539
        ],
        [
          1.0791323745183155
        ],
        [
          0.2991110807123371
        ],
        [
          -0.3387774341419035
        ],
        [
          -1.1870545788970703
        ],
        [
          -1.5345965445786578
        ],
        [
          1.79693753237786
        ],
        [
          0.3958521659963617
        ],
        [
          -0.8245464067052063
        ],
        [
          -0.08494706155001885
        ],
        [
          -3.2994231140994708
        ],
        [
          -0.5772306391524678
        ],
        [
          -0.7971049134162703
        ],
        [
          -0.07492877501464607
        ],
        [
          0.025189655931363894
        ],
        [
          -1.2807078269910055
        ],
        [
          0.46669578935895123
        ],
        [
          2.403926250318645
        ],
        [
          2.1420467835222645
        ],
        [
          -0.05272703972345391
        ]
      ]
    },
    {
      "activation": "tanh",
      "activation_prime": "tanh_prime"
    },
    {
      "weights": [
        [
          0.5747906112175598,
          1.3367205437154217,
          0.5781985998654059,
          -1.0044163540380622,
          -0.11675555209549006,
          -0.12013265832933481,
          0.08999547061028604,
          0.2803946149547495,
          -0.06359901916270168,
          0.23874869960466838,
          1.721611386871413,
          -1.462871174540215,
          0.3486966312723114,
          -1.1377576297029062,
          -1.3241772129630758,
          -0.8615401734260001,
          0.7466973484686045,
          0.33458055664323216,
          0.848340519573047,
          -0.15845295550573243,
          -1.0338969499134016,
          0.11330205448060723,
          1.200278696205987,
          -0.07949449573283077,
          -0.2210864508213365,
          -1.2040801193019102,
          -0.21577659340201497,
          -0.20317027647787447,
          -0.29832150175562694,
          -0.24002033728204883,
          0.34287957866146973,
          0.9477173285337533,
          0.2841544847256324,
          -0.2303544382030851,
          -0.9041208337393958,
          -1.3155308151831946,
          -0.7994584972551229,
          1.2143176801326407,
          1.7675852824861418,
          0.49618097496929825,
          0.8247814250016506,
          0.5386329949946869,
          0.4189414006904435,
          -0.24894641175578447,
          -0.04932500160459043,
          1.40355118216861,
          0.562700969830035,
          -0.008978006395748108,
          -1.2623810485796878,
          -0.40793101383176605,
          0.2171200740568002,
          0.3357266952008542,
          -1.0933677568681408,
          -0.9326549195787247,
          0.6426204066982749,
          0.02111106232035178,
          0.545217361828381,
          2.5059360817080085,
          0.857391441548456,
          0.5848143754268184
        ],
        [
          0.35456632462698856,
          -1.7623328219062069,
          0.755103331388972,
          -1.5260618733579174,
          1.5124619332861542,
          1.2524896089527573,
          -0.5598169671309962,
          0.8244244584876491,
          -0.47285930628108674,
          -0.6984537142727784,
          -1.3624793055598565,
          0.36750643385066645,
          0.6185866454202147,
          0.10151386742528444,
          -0.0742472441600811,
          0.8966249942716734,
          -1.8215823144070842,
          0.37639009794284917,
          -1.3726175568115764,
          -0.5629184513664531,
          -0.3159057502478231,
          -0.2867252472068697,
          -0.9235731078279509,
          -1.203296945199299,
          1.056846727716916,
          1.1077641452563114,
          -2.111247610943375,
          -0.4073644239809262,
          0.3566418780565072,
          0.2788525806370723,
          -1.5695999853825808,
          -0.8713508822678117,
          -0.32745813352461783,
          -1.2874682352983808,
          -0.4670794954616536,
          -0.5925173636567117,
          1.397372581607481,
          0.06038255504588515,
          -1.0872162461131674,
          0.5880462886028738,
          0.28349267390439997,
          0.06595404559654217,
          -0.6048234182524147,
          1.4100033942935282,
          0.5923777992735534,
          -0.41299115700553246,
          1.5749965211440442,
          -0.14788095754645816,
          -1.014418230576006,
          -0.6912473827138154,
          1.029595247099866,
          -0.2153052537277657,
          -0.563247356360699,
          -1.0129505840570734,
          -0.5603345799650222,
          -0.7465800970564596,
          0.30977326334945393,
          -0.2909255141776961,
          -0.4214319429903011,
          0.1555763683951216
        ],
        [
          -1.0372488199733276,
          -1.093355942114873,
          -1.688571987468013,
          0.5971918640754018,
          0.09068859314098236,
          1.6002159054118237,
          -0.289314250228001,
          -0.8385306485080666,
          0.5229334141437249,
          -0.6083903164815777,
          0.6107584515579842,
          2.648030141471165,
          -1.0822044137906905,
          1.0167053164066098,
          -0.2749187102808309,
          -0.9711484669119499,
          0.5188075264912811,
          -0.6146346181305783,
          -1.5444520132629669,
          -0.8965697968832922,
          0.42586496400161694,
          -2.050895850946584,
          -0.06154450286789153,
          -0.4905886889215805,
          -1.0881812010496497,
          -0.7782647497195597,
          -0.4759107411628873,
          2.5585848490177217,
          0.40827782522665496,
          1.095005687866759,
          -0.8310941470971885,
          -1.178028992255418,
          1.1627311925327577,
          0.28193167894641735,
          -1.1334208348716623,
          -1.0129138861449287,
          0.2046879724963362,
          -0.35801399305444204,
          1.7577852993915037,
          -2.1196708092949494,
          0.9421523335950974,
          0.2571621074733304,
          1.1057891942682938,
          1.2379028993174532,
          0.11356519871552065,
          -0.2767551064014591,
          -0.008001603470304656,
          -0.45864577442043925,
          -0.10881360420279318,
          0.9940605072713871,
          -0.056317495367691865,
          0.35414170269747935,
          0.4753793995213507,
          0.7101463017619505,
          0.9157346575339164,
          -1.2068662837870063,
          1.1837332223132013,
          -0.9780435693653244,
          -1.3509273605398642,
          0.12495929167303794
        ],
        [
          -0.549414207796073,
          0.34462841883908457,
          0.29414854882071556,
          0.5230372836126851,
          -0.044386110639155846,
          -0.4215212933011274,
          0.7280819096799408,
          0.4497284968690073,
          0.3044591902534435,
          -0.12398426159663989,
          -0.6646563964600114,
          0.12106161663090767,
          -1.3487176927727866,
          1.1592893620230253,
          0.10067355744781385,
          -1.6365714043453061,
          -0.9830424194429744,
          1.1424088542048734,
          0.9401027698801115,
          0.42281715339447556,
          0.020500225974825897,
          0.037465884965859175,
          0.05067416599345727,
          2.200169769359984,
          -0.5948841542452433,
          -0.6672847372303747,
          -0.2013025135740464,
          -0.6011343830342123,
          1.380499630134408,
          -0.06300705311549613,
          -0.5530564440546819,
          -1.1758058453942641,
          -1.5744938696172328,
          0.3417422322435288,
          -1.6275524233913339,
          -1.4781426415437162,
          1.1804833883830947,
          -1.0447421936781764,
          0.42342320521928906,
          1.0986703929220982,
          -1.1032871623694245,
          -1.0606561325039254,
          -0.23261733265305934,
          -2.189684895028371,
          -0.12662497158674674,
          -0.45699897049513744,
          -1.266886089773507,
          -0.6333286782167021,
          -0.2544609581078575,
          -2.2570102860579393,
          -0.41596722186309093,
          0.9654315764062327,
          -1.5040720959742462,
          -1.2797253834259277,
          -0.7707168316048586,
          0.149098204811431,
          -1.482673263492651,
          0.16477207044055528,
          1.4231965151198862,
          -1.6848073275112696
        ],
        [
          -0.003551235690354609,
          0.2853500444999096,
          1.0883484470470697,
          -0.35598297698254283,
          -0.0372377770882802,
          -1.0522087648831802,
          -1.0409877463825021,
          1.5362849843400697,
          0.6202263947561066,
          0.07352221840221121,
          0.503317744577102,
          -0.34294556993690906,
          -0.40547063627370067,
          0.05251836320224286,
          -1.1155891424846804,
          -0.8245000997968617,
          0.0017368232221712237,
          0.9902306335483734,
          -0.08305043039753657,
          -1.9658912455704591,
          0.7111793249794339,
          -0.3119555002582763,
          -1.662467174184341,
          1.3520423404808295,
          0.008342806667828781,
          0.02314030257679358,
          -0.30517908971492475,
          1.0136690806770527,
          -1.6644975040283987,
          -0.12477806220276629,
          0.19809107979806242,
          0.16485354445331843,
          -0.3349573577073171,
          -0.8510119858688378,
          0.20659726297067796,
          0.733433270569649,
          -0.46289391534529206,
          -0.5108313875971018,
          0.65942321604279,
          -1.3694048686997093,
          -0.02212175837812159,
          -0.032864264640078196,
          0.7556125763617251,
          -0.1925637095439585,
          -0.46754301883927374,
          -0.975096004865957,
          -0.7366748300390711,
          0.45457027231670066,
          1.5760698296864497,
          0.2807726803487897,
          -1.1118629162332367,
          -0.15528688583559866,
          0.022450148959736755,
          -0.15650926742213198,
          1.2643226098067188,
          -0.3717499448825033,
          -0.1090598003122124,
          0.3538411431003744,
          -0.8694492075431821,
          0.5594451756942105
        ],
        [
          1.7743706782525794,
          -0.35447674348186875,
          0.3163502696467459,
          -1.1482342530615945,
          0.30927886083937595,
          -1.0241569494111977,
          -2.0161908775767627,
          1.531722998891871,
          0.9795315148591222,
          -0.7472773498817383,
          0.33601429760807144,
          0.6576268909859248,
          2.616891127411908,
          1.0165120959509593,
          1.0971675985977367,
          -0.19367553128965706,
          0.5132496557978425,
          0.08629188425422635,
          -0.8896466147755613,
          -0.4972103596893352,
          -0.6105741528564057,
          -0.38291264568412026,
          -1.1454334549390905,
          -0.4873458600148509,
          0.03100427592904122,
          0.17924605535809068,
          -1.0986220635623378,
          1.0267159417458873,
          0.30341303984309337,
          -0.036688114572801064,
          1.313889215968795,
          1.901549745010773,
          -0.010812883476133461,
          -0.9794304220831078,
          0.6594807633772439,
          1.4161899178506094,
          -0.28678230532167004,
          -0.0067040800602623084,
          0.05545128107476165,
          -1.0859201538639627,
          0.2742133673739669,
          2.200131277864115,
          0.016921617763439735,
          -0.6868498134139702,
          -0.4203945648618527,
          -0.8972116570740923,
          -0.8858373944154764,
          0.39133584447248065,
          1.0073710780658789,
          -1.223835393772951,
          2.0065886352619824,
          -0.7120778668385489,
          0.6114904942656009,
          -0.7656166302741777,
          0.5719027483458312,
          0.10532151999452762,
          -2.0359468380388814,
          0.5945144940508325,
          -1.3488714983994199,
          0.6929914294197848
        ],
        [
          1.261224177275849,
          0.13425314755876291,
          0.45054365191985835,
          -0.7358679842927591,
          0.47144541559055414,
          -0.4670812437215952,
          0.3216016717695723,
          0.6001872034905106,
          1.4811916726240766,
          0.4851482967087706,
          -0.33205594353447054,
          -1.2096327702734337,
          -0.331962093637331,
          -0.5508644765783626,
          0.06852254051405283,
          -1.5601464567220682,
          -0.6127990877023654,
          -0.2704447230087308,
          1.1266777518544502,
          -1.610709070087363,
          0.6189882093447117,
          0.5125601640855931,
          0.9335613589451864,
          -2.001899578390818,
          -0.40375532150571253,
          -1.0543099270554954,
          0.5310750188615592,
          0.6598084506295078,
          0.22549405570200448,
          -1.4984559803068955,
          -0.4471725089627044,
          1.018809778583432,
          -0.1424805390064735,
          -1.379131737229109,
          -0.007550223168347265,
          0.08436092395898413,
          0.1783525582582521,
          0.6609962375496244,
          -0.08986435444621567,
          -0.13266355935098148,
          0.25589385398951764,
          1.7193964313140684,
          -0.19980022402895076,
          -1.1027133499351016,
          -0.23676620067862492,
          1.1486366348049233,
          0.005091640078752401,
          0.5259711000200166,
          0.7823937823276684,
          0.7935185758110244,
          0.3599999541721439,
          -0.08060597082656187,
          -1.168555432029923,
          0.1706145961595141,
          0.736000800719107,
          0.4078336993102703,
          -0.7615531554094256,
          -0.11251451004004648,
          -0.1514079507264262,
          -1.30793361134162
        ],
        [
          0.3042240383195595,
          -0.33753933232687017,
          0.8137822408821457,
          1.8678159760751443,
          0.36813175414834054,
          1.4377728058457868,
          0.6346006315221101,
          -0.6884559338355921,
          0.5503296298698199,
          -0.20904713513991519,
          2.0975040290991096,
          -0.10199992357935739,
          -0.27392958307803256,
          -0.1518347370579077,
          -0.1523947813951608,
          -0.274352379363949,
          -0.25163309715579024,
          -1.026071683712864,
          -0.08199164278374438,
          0.6361693565957856,
          -0.5773759161359716,
          -0.3769217019520373,
          0.08055581222114837,
          2.069745033304894,
          -0.2755408723489965,
          -0.37655366064408363,
          0.21061401688537965,
          -1.0096483407590642,
          0.15274190688064396,
          1.2469778044593482,
          -0.5375703292635392,
          0.6139765810004885,
          -0.2441469337198383,
          0.4601700103645191,
          -0.08786145176739572,
          -0.06856462627363544,
          -1.2043264794112838,
          1.9294809400186694,
          2.0063664767712632,
          -0.6462299467921623,
          -0.0414425975981533,
          0.593371511232341,
          0.26823624680721964,
          -0.7872805564736962,
          -1.0301956152537717,
          -0.4775218341576678,
          1.7823079426145043,
          0.22899528086185544,
          -0.7584414509108034,
          0.3901232462925489,
          -0.5787195603583317,
          1.9403223551910422,
          0.017856727846821747,
          1.4734703580681086,
          0.7583891700014501,
          0.38611189634838866,
          0.372438996916498,
          -0.007606862514124389,
          -0.7915607837173865,
          -0.4675379961491864
        ],
        [
          0.6998180072650421,
          -0.49270457539412044,
          0.990509497241864,
          0.1668904252824568,
          -0.33286410715363923,
          -0.34248103643845706,
          -2.254572043270172,
          1.100220756563853,
          -0.39212242304447464,
          0.5638139943951822,
          -0.6464749401212192,
          -0.15099380993488482,
          -0.6300979354044584,
          -0.16275328633330566,
          0.742589856558488,
          -0.9867589853119866,
          -1.3204626961717032,
          -2.28492628765107,
          0.2636442357866357,
          -0.5974856507675279,
          0.02321933787749003,
          -0.12020809466896815,
          1.2077944783770105,
          1.448048658044231,
          -0.8550911482861165,
          0.2316964576814155,
          -0.0016559122869645724,
          -0.3627966200866622,
          -0.4584817989685489,
          0.013576038451575886,
          -0.8224359289122335,
          -0.7428261525794441,
          -0.9685943869554791,
          -0.2735360282836129,
          -0.6298082561461575,
          1.0532483777705377,
          -0.07682430157143826,
          -1.6880620402413036,
          -1.6378123502116229,
          0.08881537415435715,
          0.35604716762585686,
          -0.4394371929528371,
          -0.02727593467486902,
          -0.3578233748582893,
          -0.16461914264549218,
          -1.39717579360101,
          -0.05245524371824645,
          -0.3132013859716283,
          -1.267003165712456,
          0.4766874839412976,
          0.34188957505519035,
          1.4247441848721287,
          0.12487918631829753,
          -0.16604565195634832,
          -0.03479511388483502,
          0.599004957071054,
          -1.111764269297285,
          2.1121397058569515,
          0.4018982608917995,
          -1.586086303388938
        ],
        [
          -0.9478700016196858,
          -0.32226991426514867,
          -1.2903438165206853,
          -1.9302640101620887,
          0.060943985700374376,
          0.46841730124799125,
          0.1569432361158333,
          0.3458968849204398,
          -1.6369308688515047,
          0.6761351981998038,
          -0.01594122063809476,
          1.3555128211768792,
          1.1128197574330307,
          0.6484837515256165,
          -1.418235392391804,
          -0.5223181114980059,
          0.380855232444475,
          -1.2001264540027798,
          2.714655151374664,
          -0.28310753578321946,
          0.5756709650342967,
          -0.11660264767276025,
          -0.3171987255323177,
          0.8287057257995619,
          0.45006700725716425,
          -0.7224200676500523,
          0.5914775129460845,
          -0.7285413903516568,
          0.7870002398468416,
          0.5667506892471837,
          -0.7575743431755969,
          -2.128975467177231,
          1.0622146905959684,
          -0.09405401873714993,
          -0.7236503055739139,
          0.5140227399345713,
          -0.7769862298185388,
          0.1470007949244018,
          -0.759644708024623,
          1.2601555822395984,
          -0.2971846931695167,
          1.1325627882028027,
          0.14451163445347937,
          1.9312347342719327,
          0.007454550799332851,
          -0.5507487230069584,
          0.6801434303579312,
          -0.10025628512230315,
          -0.4492350472593539,
          0.7549484267235761,
          1.5760754100328063,
          0.8700425295873064,
          -0.6461599037971154,
          -0.8501032632886322,
          2.645435014472845,
          -0.9916063288267627,
          -1.6716674908158844,
          0.5160296914945918,
          -2.0676737727061396,
          -0.06208210875742438
        ],
        [
          0.6911404305843059,
          -1.553088204503979,
          0.5393744329313869,
          -0.23933325711497191,
          -1.1366340093522138,
          -1.7164371104843101,
          -0.26379168308956247,
          -0.15353350795054066,
          -0.40791478197940645,
          0.5594742440747673,
          -0.49890608116303814,
          1.0217282111155246,
          1.789527216865506,
          -0.02450868020984217,
          0.019878735507303992,
          -0.013992846226057136,
          1.3226244769768256,
          1.0318889741027115,
          -0.8232666221144623,
          0.45707403924742035,
          -0.9249733836096183,
          1.2270517388442215,
          0.46579500789298317,
          0.9312982954017127,
          2.058872734535639,
          -0.4521028138596656,
          1.2105104869315046,
          -0.5204689803828344,
          2.5707314744206675,
          -0.9720065251715229,
          -1.4559566135532505,
          0.3636450960453603,
          -0.9882076207978854,
          1.5472829213987018,
          -0.5828577428226915,
          -1.0824939886775184,
          -0.044504255045357204,
          0.6614014032160593,
          -0.7259166410239765,
          -0.3255790580877778,
          2.858748565400818,
          1.5688094926958203,
          -0.07553849221270041,
          1.5007091803903112,
          0.4652693724203058,
          1.5631654661450054,
          -0.6764118456471241,
          0.5350299330774787,
          0.6282079870272002,
          -1.4885430638526365,
          0.2776812637991434,
          0.18923877522563157,
          0.787442099977538,
          -0.39821736527762375,
          0.1991609797682407,
          0.4330759917079835,
          -1.5683612654686154,
          0.681966849908069,
          -0.001999483879989745,
          0.8285222966687954
        ],
        [
          -1.017158058254183,
          0.03381913113776238,
          0.16567547793999637,
          -0.47751820157366265,
          0.3273237702499878,
          0.5834313448876614,
          -1.030362551341515,
          0.6539139120030781,
          2.210545368644277,
          0.4870896702711645,
          0.39059967034045984,
          0.8837968760831437,
          -0.9739488518726397,
          -1.026708575524923,
          0.1860937468498188,
          0.2655726599190346,
          -0.32902551236340577,
          -1.2659545712772513,
          3.3970701949865076,
          1.0855610129532607,
          -1.4776074620949957,
          0.1587657388131693,
          1.6440229952727496,
          0.9164326361344635,
          0.7748349677492812,
          -1.2359061513135585,
          -1.3042290067215971,
          -1.6245359319288202,
          -0.9199840646945748,
          0.019961166730613895,
          -0.6414142751002703,
          -0.6210185153812942,
          -0.39992287030997403,
          -0.0006199028446208963,
          -0.6853837546489567,
          -0.41598096399923135,
          -1.9035337898006621,
          -0.16918153818122314,
          -1.0308259630960144,
          -0.5898149857832948,
          0.9826919430469758,
          -0.44694000903824377,
          0.016666491281435013,
          -0.14708045916292498,
          0.32172924355839844,
          -0.44145702162415795,
          1.3703088669438974,
          0.08572988598551641,
          0.05046641641083973,
          0.3959268816547331,
          -0.1247637165650193,
          -0.9582586660101852,
          -1.4259433619089272,
          -1.4175422108132936,
          1.5461645815047143,
          0.1712254678099293,
          0.8799606445030383,
          -0.11284875763977038,
          -0.004594166503071231,
          0.4397482084883093
        ],
        [
          -1.2757733779775702,
          -0.04726374851893116,
          0.4419904518119723,
          0.6085075968249125,
          -0.522707790066971,
          -0.5090580604254462,
          0.1091905108120958,
          0.20642053215089518,
          0.37122123405545315,
          1.2151295069301677,
          -0.45071638804170205,
          0.9316721452449036,
          -0.2934107976271081,
          0.4624462429131071,
          1.3266955072351907,
          0.4331912401681908,
          1.3158012231811511,
          0.036528120487236346,
          0.056946131004806076,
          0.18400568658076505,
          -0.1412179686510935,
          0.554927024488457,
          0.8583952661105391,
          -0.7366187449746371,
          -1.624975799336723,
          0.01577052233573546,
          0.018758054208953632,
          0.5832629378578316,
          -0.5893955061907058,
          0.26781884690344654,
          0.23655820566663913,
          -0.8797681477533993,
          1.580621763413134,
          -1.9819112494108329,
          0.9116726415228602,
          -0.17527655604977108,
          0.9995491448166249,
          0.24589487730361448,
          -0.879824523177756,
          -1.694020195891585,
          -0.3502198078836406,
          -0.347606833430033,
          -0.2762370696424638,
          0.2893538467054621,
          0.6630787970037989,
          1.3825364369415971,
          -0.8890287211465605,
          -0.5420779566107663,
          0.37815161160426713,
          -1.58344327937405,
          0.4036974893450818,
          -1.3940295377241665,
          -0.09149577215916618,
          0.09851340379803367,
          0.4825663093690459,
          -0.4065494337344974,
          0.20053827595916068,
          -0.4308482138725224,
          -1.1951449368541822,
          0.690097680494497
        ],
        [
          1.8607797825414483,
          1.7375233580373683,
          2.321371439056928,
          -1.209539075064836,
          0.12881494758289505,
          0.31630217912629455,
          1.8759865985537743,
          0.18291321682321865,
          -0.8041387714807021,
          0.6226020921084519,
          -0.7976902405916992,
          -1.548408282651144,
          -1.152088084421289,
          0.15963126769173025,
          -1.8649484336387248,
          1.1849951665837528,
          0.38444222012063733,
          0.16281723991817196,
          1.5162162258808363,
          -0.45880751630874766,
          0.8367820394476522,
          1.7037424633002345,
          -0.29227652662571507,
          -0.9309917578323356,
          0.1604228934861894,
          -0.13226365936093173,
          0.8033454330465287,
          -0.4032336038771555,
          0.4984474315670941,
          0.6713406472601986,
          -0.9722181381279157,
          1.120360272489389,
          0.2901844126262319,
          0.3099408549624448,
          0.15255989255929978,
          2.268635518407534,
          -0.947371878462558,
          -0.8268199747697067,
          0.8913428275105337,
          -0.24603666614555977,
          0.1306552144400425,
          -0.0204796921711776,
          -1.297393011114655,
          0.10793631210831142,
          -0.08779028360665636,
          0.9787890432819896,
          -0.29533504111283204,
          0.023195769098130044,
          -0.7974463860027208,
          -0.8848357490043399,
          1.4027762440774987,
          -1.3896049763480731,
          0.46106133649884956,
          -1.602761632300008,
          -0.8532973731380792,
          0.006896674238158097,
          -0.13751075625990888,
          -1.4723774133202991,
          -0.19463038139308106,
          0.6380971040538783
        ],
        [
          0.06149163965240878,
          -0.1347976512126977,
          0.1885420737001409,
          1.1791689462451496,
          0.3361841130339808,
          -0.6049818439853492,
          -1.0532367617211638,
          0.7402318127445926,
          1.3175967594610514,
          -0.12022856605261105,
          1.2117150257657847,
          0.3498803713267097,
          -1.0186328870194572,
          1.0946297617392642,
          0.26521779368427645,
          0.31008379754193105,
          -0.0695564558989414,
          1.16293618269839,
          1.4673008623296662,
          1.8217965477350506,
          -0.20779637442273727,
          -0.029195561168074962,
          0.2436610615043628,
          -1.565496373799581,
          2.3222306255516227,
          0.316293265954613,
          -2.5216268506195596,
          0.25353071636569563,
          0.7416013817700344,
          0.332961624291243,
          1.2837760148015076,
          0.6815231829848427,
          -0.5828003178261926,
          0.10883666561702256,
          -0.4706470962407063,
          2.0017665230967387,
          -1.0104286813097032,
          -1.132661568519868,
          0.22389004671958587,
          0.7984912060483151,
          -0.730492292614442,
          -1.0096482863013294,
          -0.5488997447571828,
          -0.44126518999978837,
          -0.05960796253037019,
          -2.546166136070522,
          1.2959635868055388,
          -0.3260120573266853,
          -0.5842209294178408,
          0.14898942506657323,
          -0.38874974117269007,
          0.2904608517991073,
          -0.5289304233271869,
          -0.24881867955372328,
          -0.5919254003458868,
          -0.15081497375159053,
          1.114570433372193,
          0.7502880377763793,
          -0.7664007551721854,
          0.4045538723544229
        ],
        [
          0.1177868307415912,
          0.737313808731478,
          0.25530653882289267,
          0.7298327668572546,
          0.46080975339894503,
          -1.4206278074685696,
          0.5780137477013644,
          0.019040531455228594,
          2.1049347091077832,
          -0.08120906922835758,
          -0.43428510207290627,
          -1.4513123898413407,
          0.032727105115978636,
          1.1915291908926655,
          0.13028750167998795,
          0.4714620340101081,
          0.7539144237233579,
          0.12282060586615712,
          0.7471996262497179,
          0.7567196623677466,
          1.0723390289624473,
          0.6124766697819994,
          -0.3977952710762949,
          -0.7526157582668129,
          -0.804723108028508,
          1.2531998000681177,
          -0.772300871540897,
          -0.42642751827671915,
          -0.7078290074111064,
          0.5124015651456143,
          1.575417890845367,
          -0.4497174934909722,
